<?xml version="1.0"?>
<opencv_storage>
<cascade>
  <stageType>BOOST</stageType>
  <featureType>HAAR</featureType>
  <height>40</height>
  <width>80</width>
  <stageParams>
    <boostType>GAB</boostType>
    <minHitRate>9.9900001287460327e-01</minHitRate>
    <maxFalseAlarm>5.0000000000000000e-01</maxFalseAlarm>
    <weightTrimRate>9.4999999999999996e-01</weightTrimRate>
    <maxDepth>1</maxDepth>
    <maxWeakCount>100</maxWeakCount></stageParams>
  <featureParams>
    <maxCatCount>0</maxCatCount>
    <featSize>1</featSize>
    <mode>ALL</mode></featureParams>
  <stageNum>20</stageNum>
  <stages>
    <!-- stage 0 -->
    <_>
      <maxWeakCount>6</maxWeakCount>
      <stageThreshold>-1.1211780309677124e+00</stageThreshold>
      <weakClassifiers>
        <_>
          <internalNodes>
            0 -1 163 1.9684694052557461e-06</internalNodes>
          <leafValues>
            -5.8915835618972778e-01 9.1071426868438721e-01</leafValues></_>
        <_>
          <internalNodes>
            0 -1 222 4.4649159463006072e-06</internalNodes>
          <leafValues>
            -3.2014214992523193e-01 9.3695288896560669e-01</leafValues></_>
        <_>
          <internalNodes>
            0 -1 98 8.9873283286578953e-05</internalNodes>
          <leafValues>
            -3.2935243844985962e-01 9.1141831874847412e-01</leafValues></_>
        <_>
          <internalNodes>
            0 -1 258 1.4327395547297783e-05</internalNodes>
          <leafValues>
            -4.0593552589416504e-01 8.8088631629943848e-01</leafValues></_>
        <_>
          <internalNodes>
            0 -1 92 -1.6290246094285976e-06</internalNodes>
          <leafValues>
            9.3112385272979736e-01 -3.4093135595321655e-01</leafValues></_>
        <_>
          <internalNodes>
            0 -1 181 9.9054559541400522e-06</internalNodes>
          <leafValues>
            -3.7642893195152283e-01 8.8104408979415894e-01</leafValues></_></weakClassifiers></_>
    <!-- stage 1 -->
    <_>
      <maxWeakCount>8</maxWeakCount>
      <stageThreshold>-1.0661200284957886e+00</stageThreshold>
      <weakClassifiers>
        <_>
          <internalNodes>
            0 -1 200 1.0997615027008578e-04</internalNodes>
          <leafValues>
            -3.3612272143363953e-01 7.3181819915771484e-01</leafValues></_>
        <_>
          <internalNodes>
            0 -1 68 4.9131214618682861e-02</internalNodes>
          <leafValues>
            3.2139772176742554e-01 -9.0438586473464966e-01</leafValues></_>
        <_>
          <internalNodes>
            0 -1 111 2.5540794013068080e-04</internalNodes>
          <leafValues>
            -2.7405935525894165e-01 8.4903687238693237e-01</leafValues></_>
        <_>
          <internalNodes>
            0 -1 120 -7.6772825559601188e-04</internalNodes>
          <leafValues>
            8.7761074304580688e-01 -2.2418417036533356e-01</leafValues></_>
        <_>
          <internalNodes>
            0 -1 53 1.0629795491695404e-01</internalNodes>
          <leafValues>
            3.1837999820709229e-01 -7.4010640382766724e-01</leafValues></_>
        <_>
          <internalNodes>
            0 -1 124 -2.1468661725521088e-03</internalNodes>
          <leafValues>
            9.3566745519638062e-01 -2.6384836435317993e-01</leafValues></_>
        <_>
          <internalNodes>
            0 -1 109 7.5325119541957974e-04</internalNodes>
          <leafValues>
            -2.5568407773971558e-01 7.4965453147888184e-01</leafValues></_>
        <_>
          <internalNodes>
            0 -1 256 8.8708684779703617e-04</internalNodes>
          <leafValues>
            -2.3140159249305725e-01 7.0648735761642456e-01</leafValues></_></weakClassifiers></_>
    <!-- stage 2 -->
    <_>
      <maxWeakCount>9</maxWeakCount>
      <stageThreshold>-1.2556706666946411e+00</stageThreshold>
      <weakClassifiers>
        <_>
          <internalNodes>
            0 -1 163 5.3354387637227774e-04</internalNodes>
          <leafValues>
            -3.4083601832389832e-01 6.3076925277709961e-01</leafValues></_>
        <_>
          <internalNodes>
            0 -1 217 1.4177919365465641e-03</internalNodes>
          <leafValues>
            -1.9348831474781036e-01 8.8258635997772217e-01</leafValues></_>
        <_>
          <internalNodes>
            0 -1 197 5.8200202882289886e-02</internalNodes>
          <leafValues>
            3.1434738636016846e-01 -7.5600355863571167e-01</leafValues></_>
        <_>
          <internalNodes>
            0 -1 218 -2.0312496926635504e-03</internalNodes>
          <leafValues>
            8.6567240953445435e-01 -3.5521838068962097e-01</leafValues></_>
        <_>
          <internalNodes>
            0 -1 160 -5.9835948050022125e-02</internalNodes>
          <leafValues>
            -8.9462333917617798e-01 3.2292556762695312e-01</leafValues></_>
        <_>
          <internalNodes>
            0 -1 139 -1.2147561646997929e-03</internalNodes>
          <leafValues>
            8.2667416334152222e-01 -3.3644458651542664e-01</leafValues></_>
        <_>
          <internalNodes>
            0 -1 119 8.4233714733272791e-04</internalNodes>
          <leafValues>
            -2.4499015510082245e-01 8.3200973272323608e-01</leafValues></_>
        <_>
          <internalNodes>
            0 -1 55 1.2548391241580248e-03</internalNodes>
          <leafValues>
            -1.7645555734634399e-01 8.0828118324279785e-01</leafValues></_>
        <_>
          <internalNodes>
            0 -1 63 -8.2839076640084386e-04</internalNodes>
          <leafValues>
            7.5082480907440186e-01 -2.4551056325435638e-01</leafValues></_></weakClassifiers></_>
    <!-- stage 3 -->
    <_>
      <maxWeakCount>12</maxWeakCount>
      <stageThreshold>-1.3563367128372192e+00</stageThreshold>
      <weakClassifiers>
        <_>
          <internalNodes>
            0 -1 150 1.5696851960456115e-06</internalNodes>
          <leafValues>
            -4.4262295961380005e-01 6.8186426162719727e-01</leafValues></_>
        <_>
          <internalNodes>
            0 -1 106 4.3530703806027304e-06</internalNodes>
          <leafValues>
            -3.3052074909210205e-01 4.5976817607879639e-01</leafValues></_>
        <_>
          <internalNodes>
            0 -1 88 -3.7043631076812744e-02</internalNodes>
          <leafValues>
            -9.2839074134826660e-01 1.6806246340274811e-01</leafValues></_>
        <_>
          <internalNodes>
            0 -1 89 1.0549703438300639e-04</internalNodes>
          <leafValues>
            -3.6473831534385681e-01 4.5202913880348206e-01</leafValues></_>
        <_>
          <internalNodes>
            0 -1 127 7.6117873191833496e-02</internalNodes>
          <leafValues>
            1.5926429629325867e-01 -8.4086662530899048e-01</leafValues></_>
        <_>
          <internalNodes>
            0 -1 242 3.7484682979993522e-04</internalNodes>
          <leafValues>
            -3.2791787385940552e-01 4.0687832236289978e-01</leafValues></_>
        <_>
          <internalNodes>
            0 -1 190 1.5644018276361749e-06</internalNodes>
          <leafValues>
            -3.7051638960838318e-01 3.6664363741874695e-01</leafValues></_>
        <_>
          <internalNodes>
            0 -1 123 -3.1277138739824295e-02</internalNodes>
          <leafValues>
            -8.7531286478042603e-01 1.3172735273838043e-01</leafValues></_>
        <_>
          <internalNodes>
            0 -1 79 1.8739295774139464e-04</internalNodes>
          <leafValues>
            -2.8354072570800781e-01 5.0155752897262573e-01</leafValues></_>
        <_>
          <internalNodes>
            0 -1 205 3.8436377508332953e-05</internalNodes>
          <leafValues>
            1.8220038712024689e-01 -9.4099628925323486e-01</leafValues></_>
        <_>
          <internalNodes>
            0 -1 287 5.9591711033135653e-04</internalNodes>
          <leafValues>
            -2.3934413492679596e-01 7.2709399461746216e-01</leafValues></_>
        <_>
          <internalNodes>
            0 -1 255 -1.0618072701618075e-04</internalNodes>
          <leafValues>
            6.6777420043945312e-01 -1.9228971004486084e-01</leafValues></_></weakClassifiers></_>
    <!-- stage 4 -->
    <_>
      <maxWeakCount>14</maxWeakCount>
      <stageThreshold>-9.2104852199554443e-01</stageThreshold>
      <weakClassifiers>
        <_>
          <internalNodes>
            0 -1 209 5.4015975911170244e-04</internalNodes>
          <leafValues>
            -1.1990111321210861e-01 6.3451778888702393e-01</leafValues></_>
        <_>
          <internalNodes>
            0 -1 101 -1.8859173869714141e-03</internalNodes>
          <leafValues>
            7.7833694219589233e-01 -1.1591985076665878e-01</leafValues></_>
        <_>
          <internalNodes>
            0 -1 39 2.4640788979013450e-05</internalNodes>
          <leafValues>
            2.3245047032833099e-01 -5.1741927862167358e-01</leafValues></_>
        <_>
          <internalNodes>
            0 -1 261 2.7571334503591061e-03</internalNodes>
          <leafValues>
            1.8013800680637360e-01 -6.8006527423858643e-01</leafValues></_>
        <_>
          <internalNodes>
            0 -1 128 2.3744886275380850e-03</internalNodes>
          <leafValues>
            -1.9103866815567017e-01 6.1568194627761841e-01</leafValues></_>
        <_>
          <internalNodes>
            0 -1 179 4.0188389830291271e-03</internalNodes>
          <leafValues>
            -1.6543920338153839e-01 6.5250867605209351e-01</leafValues></_>
        <_>
          <internalNodes>
            0 -1 176 -2.8753656806657091e-05</internalNodes>
          <leafValues>
            -9.1183435916900635e-01 1.5359765291213989e-01</leafValues></_>
        <_>
          <internalNodes>
            0 -1 83 -1.7406886909157038e-03</internalNodes>
          <leafValues>
            6.6594660282135010e-01 -1.7906579375267029e-01</leafValues></_>
        <_>
          <internalNodes>
            0 -1 161 6.3465829007327557e-03</internalNodes>
          <leafValues>
            1.1258649826049805e-01 -8.9594739675521851e-01</leafValues></_>
        <_>
          <internalNodes>
            0 -1 54 1.3175286585465074e-03</internalNodes>
          <leafValues>
            -1.6399647295475006e-01 6.7970150709152222e-01</leafValues></_>
        <_>
          <internalNodes>
            0 -1 266 -9.3078997451812029e-05</internalNodes>
          <leafValues>
            -4.8648464679718018e-01 2.2124010324478149e-01</leafValues></_>
        <_>
          <internalNodes>
            0 -1 263 1.0480467462912202e-03</internalNodes>
          <leafValues>
            -1.9045408070087433e-01 5.6154274940490723e-01</leafValues></_>
        <_>
          <internalNodes>
            0 -1 15 1.7215497791767120e-05</internalNodes>
          <leafValues>
            2.0025967061519623e-01 -5.1529198884963989e-01</leafValues></_>
        <_>
          <internalNodes>
            0 -1 275 3.6288653500378132e-03</internalNodes>
          <leafValues>
            -1.4563599228858948e-01 7.6928484439849854e-01</leafValues></_></weakClassifiers></_>
    <!-- stage 5 -->
    <_>
      <maxWeakCount>17</maxWeakCount>
      <stageThreshold>-1.2866159677505493e+00</stageThreshold>
      <weakClassifiers>
        <_>
          <internalNodes>
            0 -1 171 2.1878106053918600e-04</internalNodes>
          <leafValues>
            -2.1858863532543182e-01 5.2165353298187256e-01</leafValues></_>
        <_>
          <internalNodes>
            0 -1 280 -1.9188706064596772e-03</internalNodes>
          <leafValues>
            6.9732069969177246e-01 -1.5877668559551239e-01</leafValues></_>
        <_>
          <internalNodes>
            0 -1 291 5.7757797185331583e-04</internalNodes>
          <leafValues>
            -2.0548291504383087e-01 5.7843250036239624e-01</leafValues></_>
        <_>
          <internalNodes>
            0 -1 85 5.1889512687921524e-02</internalNodes>
          <leafValues>
            1.4981880784034729e-01 -8.6229246854782104e-01</leafValues></_>
        <_>
          <internalNodes>
            0 -1 126 -2.0191579824313521e-04</internalNodes>
          <leafValues>
            7.4967688322067261e-01 -1.6573493182659149e-01</leafValues></_>
        <_>
          <internalNodes>
            0 -1 244 -1.9217157387174666e-04</internalNodes>
          <leafValues>
            6.9545942544937134e-01 -1.5550814568996429e-01</leafValues></_>
        <_>
          <internalNodes>
            0 -1 62 -1.9939720630645752e-02</internalNodes>
          <leafValues>
            -5.6819999217987061e-01 2.1452899277210236e-01</leafValues></_>
        <_>
          <internalNodes>
            0 -1 284 -2.9953740886412561e-04</internalNodes>
          <leafValues>
            6.2766003608703613e-01 -1.7366690933704376e-01</leafValues></_>
        <_>
          <internalNodes>
            0 -1 221 -4.6243869292084128e-05</internalNodes>
          <leafValues>
            -8.2799094915390015e-01 1.4787270128726959e-01</leafValues></_>
        <_>
          <internalNodes>
            0 -1 152 -4.0433533285977319e-06</internalNodes>
          <leafValues>
            -6.4280587434768677e-01 1.3255436718463898e-01</leafValues></_>
        <_>
          <internalNodes>
            0 -1 199 5.2253541070967913e-05</internalNodes>
          <leafValues>
            -2.9787996411323547e-01 3.4575811028480530e-01</leafValues></_>
        <_>
          <internalNodes>
            0 -1 247 9.2484219931066036e-04</internalNodes>
          <leafValues>
            -1.7341747879981995e-01 5.3887891769409180e-01</leafValues></_>
        <_>
          <internalNodes>
            0 -1 243 -9.9084537941962481e-04</internalNodes>
          <leafValues>
            7.1177721023559570e-01 -1.4613056182861328e-01</leafValues></_>
        <_>
          <internalNodes>
            0 -1 264 -4.4930174946784973e-02</internalNodes>
          <leafValues>
            -8.3006232976913452e-01 1.6226537525653839e-01</leafValues></_>
        <_>
          <internalNodes>
            0 -1 22 -4.6308629680424929e-04</internalNodes>
          <leafValues>
            -4.8614162206649780e-01 1.8871974945068359e-01</leafValues></_>
        <_>
          <internalNodes>
            0 -1 155 2.1584257483482361e-03</internalNodes>
          <leafValues>
            -2.1938838064670563e-01 4.5975390076637268e-01</leafValues></_>
        <_>
          <internalNodes>
            0 -1 112 4.4823586940765381e-02</internalNodes>
          <leafValues>
            1.7437715828418732e-01 -5.7768797874450684e-01</leafValues></_></weakClassifiers></_>
    <!-- stage 6 -->
    <_>
      <maxWeakCount>18</maxWeakCount>
      <stageThreshold>-9.7660648822784424e-01</stageThreshold>
      <weakClassifiers>
        <_>
          <internalNodes>
            0 -1 173 1.5598831168972538e-06</internalNodes>
          <leafValues>
            -2.5884544849395752e-01 5.1132076978683472e-01</leafValues></_>
        <_>
          <internalNodes>
            0 -1 118 -1.8792860209941864e-03</internalNodes>
          <leafValues>
            8.6652213335037231e-01 -1.2280516326427460e-01</leafValues></_>
        <_>
          <internalNodes>
            0 -1 257 1.8713384633883834e-04</internalNodes>
          <leafValues>
            -1.5676440298557281e-01 6.6629874706268311e-01</leafValues></_>
        <_>
          <internalNodes>
            0 -1 86 1.1836639605462551e-03</internalNodes>
          <leafValues>
            -1.4078834652900696e-01 8.6385530233383179e-01</leafValues></_>
        <_>
          <internalNodes>
            0 -1 253 -9.3120720703154802e-04</internalNodes>
          <leafValues>
            7.6114922761917114e-01 -1.4435337483882904e-01</leafValues></_>
        <_>
          <internalNodes>
            0 -1 67 -2.6748895645141602e-02</internalNodes>
          <leafValues>
            -7.2559666633605957e-01 1.7675267159938812e-01</leafValues></_>
        <_>
          <internalNodes>
            0 -1 252 2.5442877085879445e-04</internalNodes>
          <leafValues>
            -1.6907432675361633e-01 6.2408226728439331e-01</leafValues></_>
        <_>
          <internalNodes>
            0 -1 285 1.6673732898198068e-04</internalNodes>
          <leafValues>
            -1.2092947959899902e-01 8.8501024246215820e-01</leafValues></_>
        <_>
          <internalNodes>
            0 -1 250 -1.3735011452808976e-04</internalNodes>
          <leafValues>
            6.0589832067489624e-01 -1.3970528542995453e-01</leafValues></_>
        <_>
          <internalNodes>
            0 -1 262 -2.4577815565862693e-05</internalNodes>
          <leafValues>
            -4.4616487622261047e-01 2.3689918220043182e-01</leafValues></_>
        <_>
          <internalNodes>
            0 -1 286 1.4215583214536309e-03</internalNodes>
          <leafValues>
            -1.6835121810436249e-01 6.2864005565643311e-01</leafValues></_>
        <_>
          <internalNodes>
            0 -1 238 1.2495510280132294e-02</internalNodes>
          <leafValues>
            2.1719339489936829e-01 -6.3125777244567871e-01</leafValues></_>
        <_>
          <internalNodes>
            0 -1 282 -8.5438624955713749e-04</internalNodes>
          <leafValues>
            4.9455785751342773e-01 -2.2231341898441315e-01</leafValues></_>
        <_>
          <internalNodes>
            0 -1 188 -4.7792277655389626e-06</internalNodes>
          <leafValues>
            -5.4269701242446899e-01 1.8832844495773315e-01</leafValues></_>
        <_>
          <internalNodes>
            0 -1 100 1.1060354299843311e-03</internalNodes>
          <leafValues>
            -1.2131349742412567e-01 8.1606960296630859e-01</leafValues></_>
        <_>
          <internalNodes>
            0 -1 228 3.0163544579409063e-04</internalNodes>
          <leafValues>
            -1.9214208424091339e-01 5.2913630008697510e-01</leafValues></_>
        <_>
          <internalNodes>
            0 -1 64 1.0557651519775391e-01</internalNodes>
          <leafValues>
            1.5155249834060669e-01 -7.0528459548950195e-01</leafValues></_>
        <_>
          <internalNodes>
            0 -1 215 -6.2829858507029712e-05</internalNodes>
          <leafValues>
            -7.4295777082443237e-01 1.4045494794845581e-01</leafValues></_></weakClassifiers></_>
    <!-- stage 7 -->
    <_>
      <maxWeakCount>24</maxWeakCount>
      <stageThreshold>-1.4675039052963257e+00</stageThreshold>
      <weakClassifiers>
        <_>
          <internalNodes>
            0 -1 30 -2.7566683292388916e-01</internalNodes>
          <leafValues>
            -6.9135802984237671e-01 3.5888502001762390e-01</leafValues></_>
        <_>
          <internalNodes>
            0 -1 48 -2.3665193468332291e-02</internalNodes>
          <leafValues>
            4.6949622035026550e-01 -2.2191996872425079e-01</leafValues></_>
        <_>
          <internalNodes>
            0 -1 229 -1.6740916762501001e-03</internalNodes>
          <leafValues>
            7.9255658388137817e-01 -1.6914279758930206e-01</leafValues></_>
        <_>
          <internalNodes>
            0 -1 7 -2.0989823678974062e-04</internalNodes>
          <leafValues>
            -6.0462039709091187e-01 1.7687918245792389e-01</leafValues></_>
        <_>
          <internalNodes>
            0 -1 162 -2.5333529338240623e-03</internalNodes>
          <leafValues>
            8.6306160688400269e-01 -1.7544983327388763e-01</leafValues></_>
        <_>
          <internalNodes>
            0 -1 5 -4.8376934137195349e-04</internalNodes>
          <leafValues>
            -4.2935538291931152e-01 2.7180841565132141e-01</leafValues></_>
        <_>
          <internalNodes>
            0 -1 141 3.5898527130484581e-04</internalNodes>
          <leafValues>
            1.9670395553112030e-01 -5.1214760541915894e-01</leafValues></_>
        <_>
          <internalNodes>
            0 -1 110 7.0222758222371340e-04</internalNodes>
          <leafValues>
            -1.5867525339126587e-01 6.5016263723373413e-01</leafValues></_>
        <_>
          <internalNodes>
            0 -1 148 1.0569737059995532e-04</internalNodes>
          <leafValues>
            -3.7700468301773071e-01 2.6676505804061890e-01</leafValues></_>
        <_>
          <internalNodes>
            0 -1 231 2.7481798315420747e-04</internalNodes>
          <leafValues>
            -2.8256589174270630e-01 3.3338299393653870e-01</leafValues></_>
        <_>
          <internalNodes>
            0 -1 40 -2.7903165573661681e-06</internalNodes>
          <leafValues>
            -4.1691470146179199e-01 2.0615422725677490e-01</leafValues></_>
        <_>
          <internalNodes>
            0 -1 279 1.1206982657313347e-02</internalNodes>
          <leafValues>
            -1.4116302132606506e-01 6.0828262567520142e-01</leafValues></_>
        <_>
          <internalNodes>
            0 -1 206 -6.1083774198777974e-05</internalNodes>
          <leafValues>
            -7.8787511587142944e-01 1.2734019756317139e-01</leafValues></_>
        <_>
          <internalNodes>
            0 -1 225 1.5707419152022339e-06</internalNodes>
          <leafValues>
            -2.4328926205635071e-01 3.9871093630790710e-01</leafValues></_>
        <_>
          <internalNodes>
            0 -1 125 5.6347314966842532e-05</internalNodes>
          <leafValues>
            -1.7744423449039459e-01 4.9232032895088196e-01</leafValues></_>
        <_>
          <internalNodes>
            0 -1 19 -4.8193971451837569e-05</internalNodes>
          <leafValues>
            -4.1444754600524902e-01 2.1685349941253662e-01</leafValues></_>
        <_>
          <internalNodes>
            0 -1 154 -7.7672069892287254e-04</internalNodes>
          <leafValues>
            7.1589958667755127e-01 -1.3690853118896484e-01</leafValues></_>
        <_>
          <internalNodes>
            0 -1 13 2.6634361594915390e-02</internalNodes>
          <leafValues>
            -9.9822454154491425e-02 7.4844735860824585e-01</leafValues></_>
        <_>
          <internalNodes>
            0 -1 273 3.1628325814381242e-04</internalNodes>
          <leafValues>
            -2.2086384892463684e-01 3.6233329772949219e-01</leafValues></_>
        <_>
          <internalNodes>
            0 -1 34 -8.5508378106169403e-05</internalNodes>
          <leafValues>
            -4.3630397319793701e-01 2.1906264126300812e-01</leafValues></_>
        <_>
          <internalNodes>
            0 -1 87 1.4352424768730998e-03</internalNodes>
          <leafValues>
            -1.3610555231571198e-01 6.9250982999801636e-01</leafValues></_>
        <_>
          <internalNodes>
            0 -1 25 4.7488528070971370e-04</internalNodes>
          <leafValues>
            2.5078818202018738e-01 -3.4401407837867737e-01</leafValues></_>
        <_>
          <internalNodes>
            0 -1 11 -2.5041081011295319e-02</internalNodes>
          <leafValues>
            5.6376761198043823e-01 -1.6305749118328094e-01</leafValues></_>
        <_>
          <internalNodes>
            0 -1 28 -1.6009539365768433e-01</internalNodes>
          <leafValues>
            5.2498364448547363e-01 -1.6236494481563568e-01</leafValues></_></weakClassifiers></_>
    <!-- stage 8 -->
    <_>
      <maxWeakCount>22</maxWeakCount>
      <stageThreshold>-1.0972807407379150e+00</stageThreshold>
      <weakClassifiers>
        <_>
          <internalNodes>
            0 -1 172 -9.1637566583813168e-06</internalNodes>
          <leafValues>
            5.4229933023452759e-01 -1.4370369911193848e-01</leafValues></_>
        <_>
          <internalNodes>
            0 -1 268 -3.4009717637673020e-04</internalNodes>
          <leafValues>
            6.7355060577392578e-01 -1.2678538262844086e-01</leafValues></_>
        <_>
          <internalNodes>
            0 -1 97 -2.9136119410395622e-03</internalNodes>
          <leafValues>
            8.5902833938598633e-01 -9.0765677392482758e-02</leafValues></_>
        <_>
          <internalNodes>
            0 -1 90 1.1641590390354395e-03</internalNodes>
          <leafValues>
            -2.3465466499328613e-01 5.0983363389968872e-01</leafValues></_>
        <_>
          <internalNodes>
            0 -1 288 3.3874117070809007e-04</internalNodes>
          <leafValues>
            -1.1178851872682571e-01 6.5885329246520996e-01</leafValues></_>
        <_>
          <internalNodes>
            0 -1 135 3.5579560790210962e-04</internalNodes>
          <leafValues>
            1.7068657279014587e-01 -5.1078516244888306e-01</leafValues></_>
        <_>
          <internalNodes>
            0 -1 208 1.5243595044012181e-06</internalNodes>
          <leafValues>
            -2.2242765128612518e-01 4.4862973690032959e-01</leafValues></_>
        <_>
          <internalNodes>
            0 -1 70 -1.0175162926316261e-02</internalNodes>
          <leafValues>
            -7.0600414276123047e-01 1.1433947831392288e-01</leafValues></_>
        <_>
          <internalNodes>
            0 -1 240 -1.8770857423078269e-04</internalNodes>
          <leafValues>
            6.7999464273452759e-01 -1.5377059578895569e-01</leafValues></_>
        <_>
          <internalNodes>
            0 -1 80 -2.6101663708686829e-02</internalNodes>
          <leafValues>
            -8.9813268184661865e-01 1.3645765185356140e-01</leafValues></_>
        <_>
          <internalNodes>
            0 -1 12 2.9551605693995953e-03</internalNodes>
          <leafValues>
            1.0859637707471848e-01 -6.1040687561035156e-01</leafValues></_>
        <_>
          <internalNodes>
            0 -1 195 1.5637912156307721e-06</internalNodes>
          <leafValues>
            -2.9721859097480774e-01 3.0882966518402100e-01</leafValues></_>
        <_>
          <internalNodes>
            0 -1 207 -2.8021379839628935e-03</internalNodes>
          <leafValues>
            6.5047430992126465e-01 -1.2276322394609451e-01</leafValues></_>
        <_>
          <internalNodes>
            0 -1 198 1.3133406173437834e-03</internalNodes>
          <leafValues>
            -1.8966187536716461e-01 5.3412699699401855e-01</leafValues></_>
        <_>
          <internalNodes>
            0 -1 74 1.9203203555662185e-04</internalNodes>
          <leafValues>
            -1.9725157320499420e-01 3.7249922752380371e-01</leafValues></_>
        <_>
          <internalNodes>
            0 -1 151 -5.9191788750467822e-06</internalNodes>
          <leafValues>
            -4.7626867890357971e-01 1.8109825253486633e-01</leafValues></_>
        <_>
          <internalNodes>
            0 -1 114 2.1340213716030121e-03</internalNodes>
          <leafValues>
            1.2499281018972397e-01 -6.8475842475891113e-01</leafValues></_>
        <_>
          <internalNodes>
            0 -1 249 6.1183636717032641e-05</internalNodes>
          <leafValues>
            -2.9684299230575562e-01 2.9007181525230408e-01</leafValues></_>
        <_>
          <internalNodes>
            0 -1 82 1.5396252592836390e-06</internalNodes>
          <leafValues>
            -2.0282837748527527e-01 4.5092624425888062e-01</leafValues></_>
        <_>
          <internalNodes>
            0 -1 236 1.1838528735097498e-04</internalNodes>
          <leafValues>
            -1.1157234013080597e-01 7.5571137666702271e-01</leafValues></_>
        <_>
          <internalNodes>
            0 -1 301 -1.0216713417321444e-04</internalNodes>
          <leafValues>
            -4.2097014188766479e-01 2.2085538506507874e-01</leafValues></_>
        <_>
          <internalNodes>
            0 -1 290 2.6554614305496216e-04</internalNodes>
          <leafValues>
            -1.6711226105690002e-01 5.6046426296234131e-01</leafValues></_></weakClassifiers></_>
    <!-- stage 9 -->
    <_>
      <maxWeakCount>24</maxWeakCount>
      <stageThreshold>-1.0555893182754517e+00</stageThreshold>
      <weakClassifiers>
        <_>
          <internalNodes>
            0 -1 149 9.2834248789586127e-05</internalNodes>
          <leafValues>
            -2.1142856776714325e-01 4.7947761416435242e-01</leafValues></_>
        <_>
          <internalNodes>
            0 -1 274 -4.0983769576996565e-04</internalNodes>
          <leafValues>
            6.7354232072830200e-01 -1.1586246639490128e-01</leafValues></_>
        <_>
          <internalNodes>
            0 -1 58 1.5496350824832916e-03</internalNodes>
          <leafValues>
            -1.4779706299304962e-01 5.4269820451736450e-01</leafValues></_>
        <_>
          <internalNodes>
            0 -1 246 -3.3461191924288869e-04</internalNodes>
          <leafValues>
            5.4829770326614380e-01 -1.5681824088096619e-01</leafValues></_>
        <_>
          <internalNodes>
            0 -1 246 5.9938149206573144e-05</internalNodes>
          <leafValues>
            -2.5365462899208069e-01 4.0778532624244690e-01</leafValues></_>
        <_>
          <internalNodes>
            0 -1 136 3.6177033325657248e-04</internalNodes>
          <leafValues>
            1.6725239157676697e-01 -5.4758828878402710e-01</leafValues></_>
        <_>
          <internalNodes>
            0 -1 103 1.5149591490626335e-04</internalNodes>
          <leafValues>
            -1.3228413462638855e-01 5.9591937065124512e-01</leafValues></_>
        <_>
          <internalNodes>
            0 -1 73 3.0589595437049866e-02</internalNodes>
          <leafValues>
            1.1382202059030533e-01 -7.1133780479431152e-01</leafValues></_>
        <_>
          <internalNodes>
            0 -1 45 -2.0909251179546118e-03</internalNodes>
          <leafValues>
            -5.5862635374069214e-01 1.5925985574722290e-01</leafValues></_>
        <_>
          <internalNodes>
            0 -1 289 -8.0269924364984035e-04</internalNodes>
          <leafValues>
            8.1926560401916504e-01 -1.1768210679292679e-01</leafValues></_>
        <_>
          <internalNodes>
            0 -1 72 -3.2622277736663818e-02</internalNodes>
          <leafValues>
            -6.3854503631591797e-01 1.5292468667030334e-01</leafValues></_>
        <_>
          <internalNodes>
            0 -1 142 1.6345057520084083e-04</internalNodes>
          <leafValues>
            -2.6287510991096497e-01 3.2971972227096558e-01</leafValues></_>
        <_>
          <internalNodes>
            0 -1 75 -2.6192056015133858e-02</internalNodes>
          <leafValues>
            -8.4959167242050171e-01 1.0977399349212646e-01</leafValues></_>
        <_>
          <internalNodes>
            0 -1 60 -1.7867598216980696e-04</internalNodes>
          <leafValues>
            6.5999341011047363e-01 -1.4189472794532776e-01</leafValues></_>
        <_>
          <internalNodes>
            0 -1 59 1.9264807633589953e-04</internalNodes>
          <leafValues>
            -1.4395944774150848e-01 5.5223995447158813e-01</leafValues></_>
        <_>
          <internalNodes>
            0 -1 131 1.6380026863771491e-05</internalNodes>
          <leafValues>
            -2.5498199462890625e-01 3.2586190104484558e-01</leafValues></_>
        <_>
          <internalNodes>
            0 -1 47 -1.2711629096884280e-04</internalNodes>
          <leafValues>
            -6.2139040231704712e-01 1.4173601567745209e-01</leafValues></_>
        <_>
          <internalNodes>
            0 -1 84 -4.9797294195741415e-04</internalNodes>
          <leafValues>
            5.8252328634262085e-01 -1.4649249613285065e-01</leafValues></_>
        <_>
          <internalNodes>
            0 -1 260 1.6231805086135864e-02</internalNodes>
          <leafValues>
            1.0717317461967468e-01 -7.9463016986846924e-01</leafValues></_>
        <_>
          <internalNodes>
            0 -1 193 1.1474094208097085e-05</internalNodes>
          <leafValues>
            9.3107648193836212e-02 -7.2026062011718750e-01</leafValues></_>
        <_>
          <internalNodes>
            0 -1 184 9.0900575742125511e-05</internalNodes>
          <leafValues>
            -2.7766427397727966e-01 2.9876223206520081e-01</leafValues></_>
        <_>
          <internalNodes>
            0 -1 235 8.4856423200108111e-05</internalNodes>
          <leafValues>
            -2.0403337478637695e-01 3.9331415295600891e-01</leafValues></_>
        <_>
          <internalNodes>
            0 -1 234 1.0776125418487936e-04</internalNodes>
          <leafValues>
            -1.5296722948551178e-01 5.6321710348129272e-01</leafValues></_>
        <_>
          <internalNodes>
            0 -1 270 -7.9430406913161278e-05</internalNodes>
          <leafValues>
            -4.4973489642143250e-01 1.9525861740112305e-01</leafValues></_></weakClassifiers></_>
    <!-- stage 10 -->
    <_>
      <maxWeakCount>19</maxWeakCount>
      <stageThreshold>-1.3808315992355347e+00</stageThreshold>
      <weakClassifiers>
        <_>
          <internalNodes>
            0 -1 221 -5.8390680351294577e-05</internalNodes>
          <leafValues>
            -8.6666667461395264e-01 4.0798857808113098e-01</leafValues></_>
        <_>
          <internalNodes>
            0 -1 167 -4.6200919314287603e-05</internalNodes>
          <leafValues>
            -7.5998187065124512e-01 1.5032997727394104e-01</leafValues></_>
        <_>
          <internalNodes>
            0 -1 164 -2.2993885795585811e-04</internalNodes>
          <leafValues>
            3.7830290198326111e-01 -3.0506011843681335e-01</leafValues></_>
        <_>
          <internalNodes>
            0 -1 77 4.5121507719159126e-03</internalNodes>
          <leafValues>
            -1.6758756339550018e-01 7.1283298730850220e-01</leafValues></_>
        <_>
          <internalNodes>
            0 -1 16 -9.5094699645414948e-05</internalNodes>
          <leafValues>
            -5.7126682996749878e-01 1.7124053835868835e-01</leafValues></_>
        <_>
          <internalNodes>
            0 -1 254 1.9484708085656166e-02</internalNodes>
          <leafValues>
            -1.9967809319496155e-01 4.7973024845123291e-01</leafValues></_>
        <_>
          <internalNodes>
            0 -1 153 3.1187229324132204e-03</internalNodes>
          <leafValues>
            -1.6965040564537048e-01 5.9214872121810913e-01</leafValues></_>
        <_>
          <internalNodes>
            0 -1 202 -3.5650242352858186e-05</internalNodes>
          <leafValues>
            -7.1082603931427002e-01 1.4687553048133850e-01</leafValues></_>
        <_>
          <internalNodes>
            0 -1 241 3.1923368624120485e-06</internalNodes>
          <leafValues>
            -2.8370422124862671e-01 3.0913981795310974e-01</leafValues></_>
        <_>
          <internalNodes>
            0 -1 281 -1.2870933860540390e-03</internalNodes>
          <leafValues>
            6.9648712873458862e-01 -1.2349668890237808e-01</leafValues></_>
        <_>
          <internalNodes>
            0 -1 132 3.2730118255130947e-04</internalNodes>
          <leafValues>
            2.0348434150218964e-01 -4.3608695268630981e-01</leafValues></_>
        <_>
          <internalNodes>
            0 -1 94 7.3659988120198250e-03</internalNodes>
          <leafValues>
            -1.9891372323036194e-01 5.0060802698135376e-01</leafValues></_>
        <_>
          <internalNodes>
            0 -1 180 3.1554681481793523e-04</internalNodes>
          <leafValues>
            -1.9732321798801422e-01 4.0739047527313232e-01</leafValues></_>
        <_>
          <internalNodes>
            0 -1 8 1.6259364783763885e-02</internalNodes>
          <leafValues>
            -2.2137644886970520e-01 3.8289970159530640e-01</leafValues></_>
        <_>
          <internalNodes>
            0 -1 193 3.7265039281919599e-05</internalNodes>
          <leafValues>
            1.0450508445501328e-01 -8.8659739494323730e-01</leafValues></_>
        <_>
          <internalNodes>
            0 -1 130 2.0992988720536232e-03</internalNodes>
          <leafValues>
            -1.9339568912982941e-01 5.2139145135879517e-01</leafValues></_>
        <_>
          <internalNodes>
            0 -1 156 1.9327967493154574e-06</internalNodes>
          <leafValues>
            -3.0681723356246948e-01 2.8327569365501404e-01</leafValues></_>
        <_>
          <internalNodes>
            0 -1 51 1.0013630613684654e-02</internalNodes>
          <leafValues>
            -1.2122454494237900e-01 7.5536876916885376e-01</leafValues></_>
        <_>
          <internalNodes>
            0 -1 3 -2.0019808289362118e-05</internalNodes>
          <leafValues>
            -4.3121391534805298e-01 2.2388671338558197e-01</leafValues></_></weakClassifiers></_>
    <!-- stage 11 -->
    <_>
      <maxWeakCount>7</maxWeakCount>
      <stageThreshold>-1.2097417116165161e+00</stageThreshold>
      <weakClassifiers>
        <_>
          <internalNodes>
            0 -1 215 -9.4167357019614428e-05</internalNodes>
          <leafValues>
            -8.0000001192092896e-01 4.9575945734977722e-01</leafValues></_>
        <_>
          <internalNodes>
            0 -1 174 -5.8260012883692980e-04</internalNodes>
          <leafValues>
            -8.1980919837951660e-01 3.1421938538551331e-01</leafValues></_>
        <_>
          <internalNodes>
            0 -1 175 -2.2923410142539069e-05</internalNodes>
          <leafValues>
            -8.1405681371688843e-01 2.5528350472450256e-01</leafValues></_>
        <_>
          <internalNodes>
            0 -1 271 -4.4753622205462307e-05</internalNodes>
          <leafValues>
            -7.4031168222427368e-01 2.9436025023460388e-01</leafValues></_>
        <_>
          <internalNodes>
            0 -1 27 -7.2385410021524876e-05</internalNodes>
          <leafValues>
            -7.4663919210433960e-01 2.6917177438735962e-01</leafValues></_>
        <_>
          <internalNodes>
            0 -1 227 -8.5263731307350099e-05</internalNodes>
          <leafValues>
            -7.0777183771133423e-01 3.0458599328994751e-01</leafValues></_>
        <_>
          <internalNodes>
            0 -1 192 -6.9837537012062967e-05</internalNodes>
          <leafValues>
            -9.8926252126693726e-01 1.9966720044612885e-01</leafValues></_></weakClassifiers></_>
    <!-- stage 12 -->
    <_>
      <maxWeakCount>10</maxWeakCount>
      <stageThreshold>-9.2678743600845337e-01</stageThreshold>
      <weakClassifiers>
        <_>
          <internalNodes>
            0 -1 269 3.6306868423707783e-05</internalNodes>
          <leafValues>
            4.9108588695526123e-01 -5.5922865867614746e-01</leafValues></_>
        <_>
          <internalNodes>
            0 -1 269 -2.5073342840187252e-05</internalNodes>
          <leafValues>
            -7.0804083347320557e-01 3.8678863644599915e-01</leafValues></_>
        <_>
          <internalNodes>
            0 -1 43 9.2183821834623814e-05</internalNodes>
          <leafValues>
            2.7094441652297974e-01 -6.6760677099227905e-01</leafValues></_>
        <_>
          <internalNodes>
            0 -1 158 -2.1025882233516313e-05</internalNodes>
          <leafValues>
            -6.5220344066619873e-01 2.7544328570365906e-01</leafValues></_>
        <_>
          <internalNodes>
            0 -1 46 -5.3768698126077652e-04</internalNodes>
          <leafValues>
            -6.0636061429977417e-01 3.3497551083564758e-01</leafValues></_>
        <_>
          <internalNodes>
            0 -1 203 -2.6685467673814856e-05</internalNodes>
          <leafValues>
            -6.3140445947647095e-01 2.7109357714653015e-01</leafValues></_>
        <_>
          <internalNodes>
            0 -1 259 3.4708329621935263e-05</internalNodes>
          <leafValues>
            2.4338516592979431e-01 -6.9378191232681274e-01</leafValues></_>
        <_>
          <internalNodes>
            0 -1 214 -4.6891633246559650e-05</internalNodes>
          <leafValues>
            -7.5747168064117432e-01 2.3297730088233948e-01</leafValues></_>
        <_>
          <internalNodes>
            0 -1 26 -2.8838672733400017e-05</internalNodes>
          <leafValues>
            -6.9286590814590454e-01 2.2873385250568390e-01</leafValues></_>
        <_>
          <internalNodes>
            0 -1 133 -1.5431358770001680e-04</internalNodes>
          <leafValues>
            -5.6540101766586304e-01 3.0295073986053467e-01</leafValues></_></weakClassifiers></_>
    <!-- stage 13 -->
    <_>
      <maxWeakCount>12</maxWeakCount>
      <stageThreshold>-1.3241356611251831e+00</stageThreshold>
      <weakClassifiers>
        <_>
          <internalNodes>
            0 -1 26 2.4178938474506140e-05</internalNodes>
          <leafValues>
            5.3264605998992920e-01 -5.0115472078323364e-01</leafValues></_>
        <_>
          <internalNodes>
            0 -1 99 2.8134880267316476e-05</internalNodes>
          <leafValues>
            2.8684681653976440e-01 -6.9715660810470581e-01</leafValues></_>
        <_>
          <internalNodes>
            0 -1 26 -1.3391738320933655e-05</internalNodes>
          <leafValues>
            -6.5750724077224731e-01 2.8259170055389404e-01</leafValues></_>
        <_>
          <internalNodes>
            0 -1 267 -6.8355438997969031e-05</internalNodes>
          <leafValues>
            -7.0864152908325195e-01 1.8166027963161469e-01</leafValues></_>
        <_>
          <internalNodes>
            0 -1 186 -3.2715939596528187e-05</internalNodes>
          <leafValues>
            -7.5071865320205688e-01 1.6303944587707520e-01</leafValues></_>
        <_>
          <internalNodes>
            0 -1 224 -2.0695952116511762e-05</internalNodes>
          <leafValues>
            -5.5830770730972290e-01 2.2847528755664825e-01</leafValues></_>
        <_>
          <internalNodes>
            0 -1 146 2.0310115069150925e-03</internalNodes>
          <leafValues>
            -3.6352837085723877e-01 3.6513611674308777e-01</leafValues></_>
        <_>
          <internalNodes>
            0 -1 4 1.5103974146768451e-04</internalNodes>
          <leafValues>
            2.7584210038185120e-01 -4.9118769168853760e-01</leafValues></_>
        <_>
          <internalNodes>
            0 -1 17 1.7477846145629883e-01</internalNodes>
          <leafValues>
            -2.2687888145446777e-01 7.1249985694885254e-01</leafValues></_>
        <_>
          <internalNodes>
            0 -1 33 -6.2247283756732941e-02</internalNodes>
          <leafValues>
            6.7183643579483032e-01 -1.9979794323444366e-01</leafValues></_>
        <_>
          <internalNodes>
            0 -1 265 3.6402801924850792e-05</internalNodes>
          <leafValues>
            2.3956118524074554e-01 -6.4285051822662354e-01</leafValues></_>
        <_>
          <internalNodes>
            0 -1 191 2.0589073756127618e-05</internalNodes>
          <leafValues>
            1.4003941416740417e-01 -8.2118266820907593e-01</leafValues></_></weakClassifiers></_>
    <!-- stage 14 -->
    <_>
      <maxWeakCount>27</maxWeakCount>
      <stageThreshold>-1.0337085723876953e+00</stageThreshold>
      <weakClassifiers>
        <_>
          <internalNodes>
            0 -1 165 -8.9095185103360564e-05</internalNodes>
          <leafValues>
            5.3655791282653809e-01 -1.0451977699995041e-01</leafValues></_>
        <_>
          <internalNodes>
            0 -1 102 -6.9309091486502439e-05</internalNodes>
          <leafValues>
            4.9858617782592773e-01 -1.4965054392814636e-01</leafValues></_>
        <_>
          <internalNodes>
            0 -1 95 1.0824690252775326e-04</internalNodes>
          <leafValues>
            -1.5617454051971436e-01 5.6268936395645142e-01</leafValues></_>
        <_>
          <internalNodes>
            0 -1 248 1.4896069160386105e-06</internalNodes>
          <leafValues>
            -1.8062661588191986e-01 3.9751514792442322e-01</leafValues></_>
        <_>
          <internalNodes>
            0 -1 292 1.6775974654592574e-04</internalNodes>
          <leafValues>
            -1.2104943394660950e-01 6.0572022199630737e-01</leafValues></_>
        <_>
          <internalNodes>
            0 -1 300 3.9488682523369789e-04</internalNodes>
          <leafValues>
            1.8288201093673706e-01 -3.7771916389465332e-01</leafValues></_>
        <_>
          <internalNodes>
            0 -1 66 -2.7585122734308243e-02</internalNodes>
          <leafValues>
            -7.7441674470901489e-01 8.0665029585361481e-02</leafValues></_>
        <_>
          <internalNodes>
            0 -1 69 -4.8362882807850838e-03</internalNodes>
          <leafValues>
            5.1570236682891846e-01 -1.4385673403739929e-01</leafValues></_>
        <_>
          <internalNodes>
            0 -1 137 1.0348684736527503e-04</internalNodes>
          <leafValues>
            2.2339066863059998e-01 -3.9173075556755066e-01</leafValues></_>
        <_>
          <internalNodes>
            0 -1 245 7.9671823186799884e-05</internalNodes>
          <leafValues>
            -1.9854897260665894e-01 3.4250277280807495e-01</leafValues></_>
        <_>
          <internalNodes>
            0 -1 294 -5.9039024636149406e-03</internalNodes>
          <leafValues>
            6.2467634677886963e-01 -1.0113728046417236e-01</leafValues></_>
        <_>
          <internalNodes>
            0 -1 239 2.8777070838259533e-05</internalNodes>
          <leafValues>
            -1.3138760626316071e-01 5.1360392570495605e-01</leafValues></_>
        <_>
          <internalNodes>
            0 -1 178 2.0163986831903458e-02</internalNodes>
          <leafValues>
            -1.6535656154155731e-01 3.9822599291801453e-01</leafValues></_>
        <_>
          <internalNodes>
            0 -1 1 1.5681234002113342e-01</internalNodes>
          <leafValues>
            -1.8104875087738037e-01 4.5678138732910156e-01</leafValues></_>
        <_>
          <internalNodes>
            0 -1 56 -9.2272821348160505e-05</internalNodes>
          <leafValues>
            6.2910729646682739e-01 -1.0554218292236328e-01</leafValues></_>
        <_>
          <internalNodes>
            0 -1 37 6.5358658321201801e-04</internalNodes>
          <leafValues>
            1.7447856068611145e-01 -4.1723263263702393e-01</leafValues></_>
        <_>
          <internalNodes>
            0 -1 104 -4.8899011744651943e-05</internalNodes>
          <leafValues>
            5.5870503187179565e-01 -1.3013048470020294e-01</leafValues></_>
        <_>
          <internalNodes>
            0 -1 251 5.8145649731159210e-02</internalNodes>
          <leafValues>
            9.4091355800628662e-02 -7.6487267017364502e-01</leafValues></_>
        <_>
          <internalNodes>
            0 -1 129 1.9853000412695110e-04</internalNodes>
          <leafValues>
            -1.3913762569427490e-01 5.4094183444976807e-01</leafValues></_>
        <_>
          <internalNodes>
            0 -1 113 1.0601477697491646e-02</internalNodes>
          <leafValues>
            -2.2556085884571075e-01 3.2994067668914795e-01</leafValues></_>
        <_>
          <internalNodes>
            0 -1 121 6.5290695056319237e-03</internalNodes>
          <leafValues>
            1.9594898819923401e-01 -4.0637102723121643e-01</leafValues></_>
        <_>
          <internalNodes>
            0 -1 230 2.3995460651349276e-05</internalNodes>
          <leafValues>
            -2.2318093478679657e-01 3.1174477934837341e-01</leafValues></_>
        <_>
          <internalNodes>
            0 -1 65 -6.2038619944360107e-05</internalNodes>
          <leafValues>
            6.0418963432312012e-01 -1.0737632960081100e-01</leafValues></_>
        <_>
          <internalNodes>
            0 -1 57 1.2983276974409819e-04</internalNodes>
          <leafValues>
            -1.5236449241638184e-01 4.6140781044960022e-01</leafValues></_>
        <_>
          <internalNodes>
            0 -1 44 -9.7120413556694984e-04</internalNodes>
          <leafValues>
            -4.3973958492279053e-01 1.7653767764568329e-01</leafValues></_>
        <_>
          <internalNodes>
            0 -1 96 6.3654064433649182e-05</internalNodes>
          <leafValues>
            -2.2388826310634613e-01 3.0049929022789001e-01</leafValues></_>
        <_>
          <internalNodes>
            0 -1 122 -6.4587875385768712e-05</internalNodes>
          <leafValues>
            -3.0250188708305359e-01 2.1623045206069946e-01</leafValues></_></weakClassifiers></_>
    <!-- stage 15 -->
    <_>
      <maxWeakCount>20</maxWeakCount>
      <stageThreshold>-1.2128095626831055e+00</stageThreshold>
      <weakClassifiers>
        <_>
          <internalNodes>
            0 -1 23 3.9513659430667758e-05</internalNodes>
          <leafValues>
            4.4745221734046936e-01 -4.6627566218376160e-01</leafValues></_>
        <_>
          <internalNodes>
            0 -1 23 -1.3493958249455318e-05</internalNodes>
          <leafValues>
            -4.8795852065086365e-01 2.7516725659370422e-01</leafValues></_>
        <_>
          <internalNodes>
            0 -1 115 1.3911992937210016e-05</internalNodes>
          <leafValues>
            1.8319365382194519e-01 -5.8311384916305542e-01</leafValues></_>
        <_>
          <internalNodes>
            0 -1 283 4.8783549573272467e-05</internalNodes>
          <leafValues>
            1.3240146636962891e-01 -6.4736998081207275e-01</leafValues></_>
        <_>
          <internalNodes>
            0 -1 166 -5.4541439749300480e-03</internalNodes>
          <leafValues>
            3.6551952362060547e-01 -2.5076916813850403e-01</leafValues></_>
        <_>
          <internalNodes>
            0 -1 278 -6.3426101405639201e-05</internalNodes>
          <leafValues>
            -5.3728139400482178e-01 1.5905061364173889e-01</leafValues></_>
        <_>
          <internalNodes>
            0 -1 220 3.8530281017301604e-05</internalNodes>
          <leafValues>
            -2.9578882455825806e-01 2.8604203462600708e-01</leafValues></_>
        <_>
          <internalNodes>
            0 -1 168 -2.5850229576462880e-05</internalNodes>
          <leafValues>
            -5.4700887203216553e-01 1.8718941509723663e-01</leafValues></_>
        <_>
          <internalNodes>
            0 -1 189 9.4597169663757086e-04</internalNodes>
          <leafValues>
            -2.9646092653274536e-01 3.1893175840377808e-01</leafValues></_>
        <_>
          <internalNodes>
            0 -1 157 1.8095341147272848e-05</internalNodes>
          <leafValues>
            -3.2911264896392822e-01 2.4321408569812775e-01</leafValues></_>
        <_>
          <internalNodes>
            0 -1 226 1.5827923198230565e-04</internalNodes>
          <leafValues>
            -2.7530384063720703e-01 3.6191642284393311e-01</leafValues></_>
        <_>
          <internalNodes>
            0 -1 211 1.5476910630241036e-04</internalNodes>
          <leafValues>
            1.7340062558650970e-01 -5.2841377258300781e-01</leafValues></_>
        <_>
          <internalNodes>
            0 -1 41 6.6970894113183022e-04</internalNodes>
          <leafValues>
            1.5432982146739960e-01 -4.6259868144989014e-01</leafValues></_>
        <_>
          <internalNodes>
            0 -1 219 5.8679876383394003e-04</internalNodes>
          <leafValues>
            -1.4885018765926361e-01 5.7178318500518799e-01</leafValues></_>
        <_>
          <internalNodes>
            0 -1 18 -2.3115368094295263e-04</internalNodes>
          <leafValues>
            -4.8738932609558105e-01 1.6057084500789642e-01</leafValues></_>
        <_>
          <internalNodes>
            0 -1 107 1.7839602151070721e-06</internalNodes>
          <leafValues>
            -2.6263803243637085e-01 2.8116548061370850e-01</leafValues></_>
        <_>
          <internalNodes>
            0 -1 38 2.6104041934013367e-01</internalNodes>
          <leafValues>
            -8.4726378321647644e-02 8.2945615053176880e-01</leafValues></_>
        <_>
          <internalNodes>
            0 -1 50 -8.5634008049964905e-02</internalNodes>
          <leafValues>
            4.6897929906845093e-01 -1.8184079229831696e-01</leafValues></_>
        <_>
          <internalNodes>
            0 -1 237 -3.4746917663142085e-05</internalNodes>
          <leafValues>
            -5.2290010452270508e-01 1.5589705109596252e-01</leafValues></_>
        <_>
          <internalNodes>
            0 -1 210 9.7257681773044169e-05</internalNodes>
          <leafValues>
            -2.4082048237323761e-01 3.4666767716407776e-01</leafValues></_></weakClassifiers></_>
    <!-- stage 16 -->
    <_>
      <maxWeakCount>16</maxWeakCount>
      <stageThreshold>-1.0369247198104858e+00</stageThreshold>
      <weakClassifiers>
        <_>
          <internalNodes>
            0 -1 10 1.9054104996030219e-05</internalNodes>
          <leafValues>
            4.8651000857353210e-01 -3.4821429848670959e-01</leafValues></_>
        <_>
          <internalNodes>
            0 -1 10 -1.0442564416734967e-05</internalNodes>
          <leafValues>
            -4.7823384404182434e-01 3.0010560154914856e-01</leafValues></_>
        <_>
          <internalNodes>
            0 -1 212 -1.9691431589308195e-05</internalNodes>
          <leafValues>
            -7.2459363937377930e-01 1.5199489891529083e-01</leafValues></_>
        <_>
          <internalNodes>
            0 -1 71 -3.3751875162124634e-03</internalNodes>
          <leafValues>
            5.5502629280090332e-01 -2.0201210677623749e-01</leafValues></_>
        <_>
          <internalNodes>
            0 -1 81 1.9431076943874359e-02</internalNodes>
          <leafValues>
            -2.6385128498077393e-01 4.5513588190078735e-01</leafValues></_>
        <_>
          <internalNodes>
            0 -1 21 4.8990947107085958e-05</internalNodes>
          <leafValues>
            3.2045182585716248e-01 -3.6862519383430481e-01</leafValues></_>
        <_>
          <internalNodes>
            0 -1 35 -1.2781789898872375e-01</internalNodes>
          <leafValues>
            7.0976507663726807e-01 -1.6040745377540588e-01</leafValues></_>
        <_>
          <internalNodes>
            0 -1 32 5.8594621717929840e-02</internalNodes>
          <leafValues>
            -2.1595950424671173e-01 5.9553086757659912e-01</leafValues></_>
        <_>
          <internalNodes>
            0 -1 298 5.7812518207356334e-05</internalNodes>
          <leafValues>
            2.5635161995887756e-01 -4.2886012792587280e-01</leafValues></_>
        <_>
          <internalNodes>
            0 -1 204 -2.4704925715923309e-02</internalNodes>
          <leafValues>
            5.0352412462234497e-01 -2.1135245263576508e-01</leafValues></_>
        <_>
          <internalNodes>
            0 -1 276 1.4753788127563894e-04</internalNodes>
          <leafValues>
            1.9893802702426910e-01 -5.0829887390136719e-01</leafValues></_>
        <_>
          <internalNodes>
            0 -1 297 8.5707011749036610e-05</internalNodes>
          <leafValues>
            2.4026307463645935e-01 -4.3638861179351807e-01</leafValues></_>
        <_>
          <internalNodes>
            0 -1 272 6.2372407410293818e-04</internalNodes>
          <leafValues>
            1.7552186548709869e-01 -5.6768363714218140e-01</leafValues></_>
        <_>
          <internalNodes>
            0 -1 78 6.1151258647441864e-02</internalNodes>
          <leafValues>
            1.0938043892383575e-01 -7.7705621719360352e-01</leafValues></_>
        <_>
          <internalNodes>
            0 -1 117 -1.0349737480282784e-02</internalNodes>
          <leafValues>
            4.4807648658752441e-01 -2.5377643108367920e-01</leafValues></_>
        <_>
          <internalNodes>
            0 -1 293 1.0837145964615047e-04</internalNodes>
          <leafValues>
            2.6195541024208069e-01 -4.0580970048904419e-01</leafValues></_></weakClassifiers></_>
    <!-- stage 17 -->
    <_>
      <maxWeakCount>14</maxWeakCount>
      <stageThreshold>-1.1496504545211792e+00</stageThreshold>
      <weakClassifiers>
        <_>
          <internalNodes>
            0 -1 163 1.7738723545335233e-04</internalNodes>
          <leafValues>
            -3.5059762001037598e-01 5.2876710891723633e-01</leafValues></_>
        <_>
          <internalNodes>
            0 -1 42 -9.5359537226613611e-06</internalNodes>
          <leafValues>
            -3.8435941934585571e-01 3.8881763815879822e-01</leafValues></_>
        <_>
          <internalNodes>
            0 -1 93 -2.9290020465850830e-03</internalNodes>
          <leafValues>
            -4.1985991597175598e-01 2.9487723112106323e-01</leafValues></_>
        <_>
          <internalNodes>
            0 -1 36 -3.0156446882756427e-05</internalNodes>
          <leafValues>
            -4.7918638586997986e-01 2.6267841458320618e-01</leafValues></_>
        <_>
          <internalNodes>
            0 -1 29 -1.6963995993137360e-01</internalNodes>
          <leafValues>
            6.8997770547866821e-01 -1.6946238279342651e-01</leafValues></_>
        <_>
          <internalNodes>
            0 -1 134 -1.3058872355031781e-05</internalNodes>
          <leafValues>
            -4.8851022124290466e-01 2.3480820655822754e-01</leafValues></_>
        <_>
          <internalNodes>
            0 -1 213 -1.4321329217636958e-05</internalNodes>
          <leafValues>
            -3.4006601572036743e-01 3.5604619979858398e-01</leafValues></_>
        <_>
          <internalNodes>
            0 -1 6 9.3251764774322510e-02</internalNodes>
          <leafValues>
            -1.5462443232536316e-01 7.6396465301513672e-01</leafValues></_>
        <_>
          <internalNodes>
            0 -1 185 6.1531187384389341e-05</internalNodes>
          <leafValues>
            -3.2591745257377625e-01 3.4868174791336060e-01</leafValues></_>
        <_>
          <internalNodes>
            0 -1 277 -1.4349205230246298e-05</internalNodes>
          <leafValues>
            -5.5105304718017578e-01 2.2154875099658966e-01</leafValues></_>
        <_>
          <internalNodes>
            0 -1 303 -1.2249493011040613e-05</internalNodes>
          <leafValues>
            -4.4774547219276428e-01 2.6545280218124390e-01</leafValues></_>
        <_>
          <internalNodes>
            0 -1 147 3.8822731585241854e-04</internalNodes>
          <leafValues>
            1.4046409726142883e-01 -6.5886914730072021e-01</leafValues></_>
        <_>
          <internalNodes>
            0 -1 295 -1.1659756273729727e-04</internalNodes>
          <leafValues>
            -4.2009979486465454e-01 2.4689266085624695e-01</leafValues></_>
        <_>
          <internalNodes>
            0 -1 182 -3.5350389225641266e-05</internalNodes>
          <leafValues>
            -3.3101531863212585e-01 3.2223582267761230e-01</leafValues></_></weakClassifiers></_>
    <!-- stage 18 -->
    <_>
      <maxWeakCount>21</maxWeakCount>
      <stageThreshold>-1.2726604938507080e+00</stageThreshold>
      <weakClassifiers>
        <_>
          <internalNodes>
            0 -1 24 2.6338995667174459e-05</internalNodes>
          <leafValues>
            4.5193928480148315e-01 -3.2360097765922546e-01</leafValues></_>
        <_>
          <internalNodes>
            0 -1 24 -7.3335449997102842e-06</internalNodes>
          <leafValues>
            -4.6032443642616272e-01 2.9032760858535767e-01</leafValues></_>
        <_>
          <internalNodes>
            0 -1 49 -6.2759986576566007e-06</internalNodes>
          <leafValues>
            -3.7740918993949890e-01 2.3961022496223450e-01</leafValues></_>
        <_>
          <internalNodes>
            0 -1 143 -1.0428500827401876e-03</internalNodes>
          <leafValues>
            6.2300825119018555e-01 -1.5395005047321320e-01</leafValues></_>
        <_>
          <internalNodes>
            0 -1 49 3.3004245779011399e-05</internalNodes>
          <leafValues>
            1.8051041662693024e-01 -4.8045942187309265e-01</leafValues></_>
        <_>
          <internalNodes>
            0 -1 201 -5.0644379371078685e-05</internalNodes>
          <leafValues>
            -5.9350377321243286e-01 1.5551672875881195e-01</leafValues></_>
        <_>
          <internalNodes>
            0 -1 61 8.6549907922744751e-02</internalNodes>
          <leafValues>
            -1.4025776088237762e-01 7.9722326993942261e-01</leafValues></_>
        <_>
          <internalNodes>
            0 -1 177 -4.5471847442968283e-06</internalNodes>
          <leafValues>
            -4.4472858309745789e-01 2.5795474648475647e-01</leafValues></_>
        <_>
          <internalNodes>
            0 -1 232 -2.7793016284704208e-02</internalNodes>
          <leafValues>
            -7.7921092510223389e-01 1.3803210854530334e-01</leafValues></_>
        <_>
          <internalNodes>
            0 -1 14 5.5610798881389201e-06</internalNodes>
          <leafValues>
            2.4624989926815033e-01 -3.6498349905014038e-01</leafValues></_>
        <_>
          <internalNodes>
            0 -1 108 5.6038971524685621e-04</internalNodes>
          <leafValues>
            -2.2969281673431396e-01 3.9870378375053406e-01</leafValues></_>
        <_>
          <internalNodes>
            0 -1 216 2.4318374926224351e-04</internalNodes>
          <leafValues>
            -3.5613456368446350e-01 2.7145400643348694e-01</leafValues></_>
        <_>
          <internalNodes>
            0 -1 140 2.0306909573264420e-04</internalNodes>
          <leafValues>
            1.7596258223056793e-01 -5.4863756895065308e-01</leafValues></_>
        <_>
          <internalNodes>
            0 -1 233 -1.3877558558306191e-05</internalNodes>
          <leafValues>
            -5.1646161079406738e-01 1.7264990508556366e-01</leafValues></_>
        <_>
          <internalNodes>
            0 -1 116 1.0004052892327309e-03</internalNodes>
          <leafValues>
            -1.5701009333133698e-01 5.8803397417068481e-01</leafValues></_>
        <_>
          <internalNodes>
            0 -1 159 -5.8421319408807904e-06</internalNodes>
          <leafValues>
            -4.3586990237236023e-01 2.2279687225818634e-01</leafValues></_>
        <_>
          <internalNodes>
            0 -1 191 1.1065139915444888e-05</internalNodes>
          <leafValues>
            1.3768638670444489e-01 -6.4512550830841064e-01</leafValues></_>
        <_>
          <internalNodes>
            0 -1 76 -1.5976587310433388e-03</internalNodes>
          <leafValues>
            5.1305449008941650e-01 -2.0707245171070099e-01</leafValues></_>
        <_>
          <internalNodes>
            0 -1 187 -5.2660725486930460e-05</internalNodes>
          <leafValues>
            -5.5028420686721802e-01 1.7751391232013702e-01</leafValues></_>
        <_>
          <internalNodes>
            0 -1 138 -1.0371585376560688e-03</internalNodes>
          <leafValues>
            3.5301661491394043e-01 -3.2219725847244263e-01</leafValues></_>
        <_>
          <internalNodes>
            0 -1 296 5.0966199487447739e-03</internalNodes>
          <leafValues>
            1.9457668066024780e-01 -5.7289707660675049e-01</leafValues></_></weakClassifiers></_>
    <!-- stage 19 -->
    <_>
      <maxWeakCount>18</maxWeakCount>
      <stageThreshold>-1.2231811285018921e+00</stageThreshold>
      <weakClassifiers>
        <_>
          <internalNodes>
            0 -1 302 2.4270314042951213e-06</internalNodes>
          <leafValues>
            5.0050967931747437e-01 -1.4285714924335480e-01</leafValues></_>
        <_>
          <internalNodes>
            0 -1 223 -6.5028220415115356e-03</internalNodes>
          <leafValues>
            4.9393218755722046e-01 -1.9966077804565430e-01</leafValues></_>
        <_>
          <internalNodes>
            0 -1 20 6.9667220115661621e-02</internalNodes>
          <leafValues>
            -1.3889479637145996e-01 7.8527289628982544e-01</leafValues></_>
        <_>
          <internalNodes>
            0 -1 31 -1.7725456506013870e-02</internalNodes>
          <leafValues>
            4.5413497090339661e-01 -3.5756802558898926e-01</leafValues></_>
        <_>
          <internalNodes>
            0 -1 145 1.3994672335684299e-03</internalNodes>
          <leafValues>
            2.0169623196125031e-01 -6.8794465065002441e-01</leafValues></_>
        <_>
          <internalNodes>
            0 -1 9 1.0107569687534124e-04</internalNodes>
          <leafValues>
            2.1406264603137970e-01 -5.0606036186218262e-01</leafValues></_>
        <_>
          <internalNodes>
            0 -1 2 8.2064822316169739e-02</internalNodes>
          <leafValues>
            -2.1953147649765015e-01 5.5305600166320801e-01</leafValues></_>
        <_>
          <internalNodes>
            0 -1 52 -4.4273780658841133e-03</internalNodes>
          <leafValues>
            4.2578089237213135e-01 -2.4609866738319397e-01</leafValues></_>
        <_>
          <internalNodes>
            0 -1 194 9.0335897766635753e-06</internalNodes>
          <leafValues>
            2.1937134861946106e-01 -4.7736489772796631e-01</leafValues></_>
        <_>
          <internalNodes>
            0 -1 0 -4.1322357719764113e-04</internalNodes>
          <leafValues>
            -4.7461897134780884e-01 1.7514336109161377e-01</leafValues></_>
        <_>
          <internalNodes>
            0 -1 170 1.0569219011813402e-03</internalNodes>
          <leafValues>
            1.1043582856655121e-01 -7.3343133926391602e-01</leafValues></_>
        <_>
          <internalNodes>
            0 -1 91 5.8929399529006332e-05</internalNodes>
          <leafValues>
            -2.5686451792716980e-01 3.6896079778671265e-01</leafValues></_>
        <_>
          <internalNodes>
            0 -1 169 -9.1206969227641821e-04</internalNodes>
          <leafValues>
            -5.8388698101043701e-01 1.4694529771804810e-01</leafValues></_>
        <_>
          <internalNodes>
            0 -1 105 9.9808233790099621e-04</internalNodes>
          <leafValues>
            -2.8598597645759583e-01 2.9874405264854431e-01</leafValues></_>
        <_>
          <internalNodes>
            0 -1 299 4.2055464291479439e-05</internalNodes>
          <leafValues>
            2.7432057261466980e-01 -3.6168617010116577e-01</leafValues></_>
        <_>
          <internalNodes>
            0 -1 183 -2.1985487546771765e-04</internalNodes>
          <leafValues>
            4.2536771297454834e-01 -2.1550433337688446e-01</leafValues></_>
        <_>
          <internalNodes>
            0 -1 144 -1.6730614006519318e-03</internalNodes>
          <leafValues>
            -5.4738241434097290e-01 1.7829515039920807e-01</leafValues></_>
        <_>
          <internalNodes>
            0 -1 196 1.1859679361805320e-03</internalNodes>
          <leafValues>
            9.1464139521121979e-02 -7.2152608633041382e-01</leafValues></_></weakClassifiers></_></stages>
  <features>
    <_>
      <rects>
        <_>
          0 2 3 35 -1.</_>
        <_>
          1 2 1 35 3.</_></rects>
      <tilted>0</tilted></_>
    <_>
      <rects>
        <_>
          0 2 80 38 -1.</_>
        <_>
          20 2 40 38 2.</_></rects>
      <tilted>0</tilted></_>
    <_>
      <rects>
        <_>
          0 6 36 33 -1.</_>
        <_>
          18 6 18 33 2.</_></rects>
      <tilted>0</tilted></_>
    <_>
      <rects>
        <_>
          0 7 4 6 -1.</_>
        <_>
          1 7 2 6 2.</_></rects>
      <tilted>0</tilted></_>
    <_>
      <rects>
        <_>
          0 8 2 6 -1.</_>
        <_>
          0 11 2 3 2.</_></rects>
      <tilted>0</tilted></_>
    <_>
      <rects>
        <_>
          0 9 10 8 -1.</_>
        <_>
          0 9 5 4 2.</_>
        <_>
          5 13 5 4 2.</_></rects>
      <tilted>0</tilted></_>
    <_>
      <rects>
        <_>
          0 9 34 22 -1.</_>
        <_>
          17 9 17 22 2.</_></rects>
      <tilted>0</tilted></_>
    <_>
      <rects>
        <_>
          0 10 2 4 -1.</_>
        <_>
          0 12 2 2 2.</_></rects>
      <tilted>0</tilted></_>
    <_>
      <rects>
        <_>
          0 11 34 28 -1.</_>
        <_>
          0 11 17 14 2.</_>
        <_>
          17 25 17 14 2.</_></rects>
      <tilted>0</tilted></_>
    <_>
      <rects>
        <_>
          0 12 3 18 -1.</_>
        <_>
          1 12 1 18 3.</_></rects>
      <tilted>0</tilted></_>
    <_>
      <rects>
        <_>
          0 13 3 3 -1.</_>
        <_>
          1 13 1 3 3.</_></rects>
      <tilted>0</tilted></_>
    <_>
      <rects>
        <_>
          0 13 24 18 -1.</_>
        <_>
          6 13 12 18 2.</_></rects>
      <tilted>0</tilted></_>
    <_>
      <rects>
        <_>
          0 24 8 14 -1.</_>
        <_>
          0 24 4 7 2.</_>
        <_>
          4 31 4 7 2.</_></rects>
      <tilted>0</tilted></_>
    <_>
      <rects>
        <_>
          0 26 80 2 -1.</_>
        <_>
          20 26 40 2 2.</_></rects>
      <tilted>0</tilted></_>
    <_>
      <rects>
        <_>
          0 28 8 1 -1.</_>
        <_>
          2 28 4 1 2.</_></rects>
      <tilted>0</tilted></_>
    <_>
      <rects>
        <_>
          0 32 3 5 -1.</_>
        <_>
          1 32 1 5 3.</_></rects>
      <tilted>0</tilted></_>
    <_>
      <rects>
        <_>
          0 33 10 2 -1.</_>
        <_>
          0 33 5 1 2.</_>
        <_>
          5 34 5 1 2.</_></rects>
      <tilted>0</tilted></_>
    <_>
      <rects>
        <_>
          1 0 76 30 -1.</_>
        <_>
          20 0 38 30 2.</_></rects>
      <tilted>0</tilted></_>
    <_>
      <rects>
        <_>
          1 7 2 6 -1.</_>
        <_>
          1 10 2 3 2.</_></rects>
      <tilted>0</tilted></_>
    <_>
      <rects>
        <_>
          1 8 6 3 -1.</_>
        <_>
          4 8 3 3 2.</_></rects>
      <tilted>0</tilted></_>
    <_>
      <rects>
        <_>
          1 22 76 9 -1.</_>
        <_>
          20 22 38 9 2.</_></rects>
      <tilted>0</tilted></_>
    <_>
      <rects>
        <_>
          1 23 1 6 -1.</_>
        <_>
          1 25 1 2 3.</_></rects>
      <tilted>0</tilted></_>
    <_>
      <rects>
        <_>
          2 8 6 24 -1.</_>
        <_>
          2 8 3 12 2.</_>
        <_>
          5 20 3 12 2.</_></rects>
      <tilted>0</tilted></_>
    <_>
      <rects>
        <_>
          2 31 2 2 -1.</_>
        <_>
          2 32 2 1 2.</_></rects>
      <tilted>0</tilted></_>
    <_>
      <rects>
        <_>
          3 9 2 6 -1.</_>
        <_>
          3 9 1 3 2.</_>
        <_>
          4 12 1 3 2.</_></rects>
      <tilted>0</tilted></_>
    <_>
      <rects>
        <_>
          3 24 10 16 -1.</_>
        <_>
          3 24 5 8 2.</_>
        <_>
          8 32 5 8 2.</_></rects>
      <tilted>0</tilted></_>
    <_>
      <rects>
        <_>
          3 26 2 2 -1.</_>
        <_>
          3 26 1 1 2.</_>
        <_>
          4 27 1 1 2.</_></rects>
      <tilted>0</tilted></_>
    <_>
      <rects>
        <_>
          3 37 4 2 -1.</_>
        <_>
          3 37 2 1 2.</_>
        <_>
          5 38 2 1 2.</_></rects>
      <tilted>0</tilted></_>
    <_>
      <rects>
        <_>
          4 3 75 34 -1.</_>
        <_>
          29 3 25 34 3.</_></rects>
      <tilted>0</tilted></_>
    <_>
      <rects>
        <_>
          4 6 76 28 -1.</_>
        <_>
          23 6 38 28 2.</_></rects>
      <tilted>0</tilted></_>
    <_>
      <rects>
        <_>
          4 6 76 31 -1.</_>
        <_>
          42 6 38 31 2.</_></rects>
      <tilted>0</tilted></_>
    <_>
      <rects>
        <_>
          4 8 68 8 -1.</_>
        <_>
          21 8 34 8 2.</_></rects>
      <tilted>0</tilted></_>
    <_>
      <rects>
        <_>
          5 1 26 36 -1.</_>
        <_>
          18 1 13 36 2.</_></rects>
      <tilted>0</tilted></_>
    <_>
      <rects>
        <_>
          5 16 72 20 -1.</_>
        <_>
          23 16 36 20 2.</_></rects>
      <tilted>0</tilted></_>
    <_>
      <rects>
        <_>
          5 29 4 10 -1.</_>
        <_>
          5 29 2 5 2.</_>
        <_>
          7 34 2 5 2.</_></rects>
      <tilted>0</tilted></_>
    <_>
      <rects>
        <_>
          6 2 72 20 -1.</_>
        <_>
          24 2 36 20 2.</_></rects>
      <tilted>0</tilted></_>
    <_>
      <rects>
        <_>
          6 9 2 13 -1.</_>
        <_>
          7 9 1 13 2.</_></rects>
      <tilted>0</tilted></_>
    <_>
      <rects>
        <_>
          8 2 4 28 -1.</_>
        <_>
          10 2 2 28 2.</_></rects>
      <tilted>0</tilted></_>
    <_>
      <rects>
        <_>
          8 3 72 32 -1.</_>
        <_>
          26 3 36 32 2.</_></rects>
      <tilted>0</tilted></_>
    <_>
      <rects>
        <_>
          8 13 2 12 -1.</_>
        <_>
          8 13 1 6 2.</_>
        <_>
          9 19 1 6 2.</_></rects>
      <tilted>0</tilted></_>
    <_>
      <rects>
        <_>
          8 25 3 13 -1.</_>
        <_>
          9 25 1 13 3.</_></rects>
      <tilted>0</tilted></_>
    <_>
      <rects>
        <_>
          8 33 6 6 -1.</_>
        <_>
          8 36 6 3 2.</_></rects>
      <tilted>0</tilted></_>
    <_>
      <rects>
        <_>
          8 34 9 6 -1.</_>
        <_>
          11 36 3 2 9.</_></rects>
      <tilted>0</tilted></_>
    <_>
      <rects>
        <_>
          9 0 6 2 -1.</_>
        <_>
          9 0 3 1 2.</_>
        <_>
          12 1 3 1 2.</_></rects>
      <tilted>0</tilted></_>
    <_>
      <rects>
        <_>
          9 6 4 26 -1.</_>
        <_>
          11 6 2 26 2.</_></rects>
      <tilted>0</tilted></_>
    <_>
      <rects>
        <_>
          9 12 6 10 -1.</_>
        <_>
          12 12 3 10 2.</_></rects>
      <tilted>0</tilted></_>
    <_>
      <rects>
        <_>
          9 28 4 7 -1.</_>
        <_>
          10 29 2 7 2.</_></rects>
      <tilted>1</tilted></_>
    <_>
      <rects>
        <_>
          11 1 4 4 -1.</_>
        <_>
          12 1 2 4 2.</_></rects>
      <tilted>0</tilted></_>
    <_>
      <rects>
        <_>
          11 12 40 26 -1.</_>
        <_>
          31 12 20 26 2.</_></rects>
      <tilted>0</tilted></_>
    <_>
      <rects>
        <_>
          13 0 4 1 -1.</_>
        <_>
          15 0 2 1 2.</_></rects>
      <tilted>0</tilted></_>
    <_>
      <rects>
        <_>
          13 0 60 33 -1.</_>
        <_>
          28 0 30 33 2.</_></rects>
      <tilted>0</tilted></_>
    <_>
      <rects>
        <_>
          13 0 27 6 -1.</_>
        <_>
          13 3 27 3 2.</_></rects>
      <tilted>0</tilted></_>
    <_>
      <rects>
        <_>
          13 22 30 6 -1.</_>
        <_>
          28 22 15 6 2.</_></rects>
      <tilted>0</tilted></_>
    <_>
      <rects>
        <_>
          14 1 35 38 -1.</_>
        <_>
          14 20 35 19 2.</_></rects>
      <tilted>0</tilted></_>
    <_>
      <rects>
        <_>
          18 18 6 4 -1.</_>
        <_>
          20 18 2 4 3.</_></rects>
      <tilted>0</tilted></_>
    <_>
      <rects>
        <_>
          19 13 24 3 -1.</_>
        <_>
          18 14 24 1 3.</_></rects>
      <tilted>1</tilted></_>
    <_>
      <rects>
        <_>
          19 14 2 1 -1.</_>
        <_>
          20 14 1 1 2.</_></rects>
      <tilted>0</tilted></_>
    <_>
      <rects>
        <_>
          19 14 6 2 -1.</_>
        <_>
          19 14 3 1 2.</_>
        <_>
          22 15 3 1 2.</_></rects>
      <tilted>0</tilted></_>
    <_>
      <rects>
        <_>
          19 15 20 3 -1.</_>
        <_>
          18 16 20 1 3.</_></rects>
      <tilted>1</tilted></_>
    <_>
      <rects>
        <_>
          20 14 3 2 -1.</_>
        <_>
          21 14 1 2 3.</_></rects>
      <tilted>0</tilted></_>
    <_>
      <rects>
        <_>
          20 15 3 1 -1.</_>
        <_>
          21 15 1 1 3.</_></rects>
      <tilted>0</tilted></_>
    <_>
      <rects>
        <_>
          21 9 27 15 -1.</_>
        <_>
          30 14 9 5 9.</_></rects>
      <tilted>0</tilted></_>
    <_>
      <rects>
        <_>
          21 13 26 20 -1.</_>
        <_>
          21 23 26 10 2.</_></rects>
      <tilted>0</tilted></_>
    <_>
      <rects>
        <_>
          21 15 22 3 -1.</_>
        <_>
          20 16 22 1 3.</_></rects>
      <tilted>1</tilted></_>
    <_>
      <rects>
        <_>
          22 8 39 24 -1.</_>
        <_>
          35 16 13 8 9.</_></rects>
      <tilted>0</tilted></_>
    <_>
      <rects>
        <_>
          22 12 2 2 -1.</_>
        <_>
          22 12 1 1 2.</_>
        <_>
          23 13 1 1 2.</_></rects>
      <tilted>0</tilted></_>
    <_>
      <rects>
        <_>
          22 12 34 16 -1.</_>
        <_>
          22 12 17 8 2.</_>
        <_>
          39 20 17 8 2.</_></rects>
      <tilted>0</tilted></_>
    <_>
      <rects>
        <_>
          23 13 26 14 -1.</_>
        <_>
          36 13 13 14 2.</_></rects>
      <tilted>0</tilted></_>
    <_>
      <rects>
        <_>
          23 16 40 15 -1.</_>
        <_>
          43 16 20 15 2.</_></rects>
      <tilted>0</tilted></_>
    <_>
      <rects>
        <_>
          23 20 24 3 -1.</_>
        <_>
          29 20 12 3 2.</_></rects>
      <tilted>0</tilted></_>
    <_>
      <rects>
        <_>
          23 21 34 3 -1.</_>
        <_>
          40 21 17 3 2.</_></rects>
      <tilted>0</tilted></_>
    <_>
      <rects>
        <_>
          23 22 24 2 -1.</_>
        <_>
          29 22 12 2 2.</_></rects>
      <tilted>0</tilted></_>
    <_>
      <rects>
        <_>
          24 6 32 14 -1.</_>
        <_>
          40 6 16 14 2.</_></rects>
      <tilted>0</tilted></_>
    <_>
      <rects>
        <_>
          24 8 22 24 -1.</_>
        <_>
          35 8 11 24 2.</_></rects>
      <tilted>0</tilted></_>
    <_>
      <rects>
        <_>
          24 15 14 3 -1.</_>
        <_>
          23 16 14 1 3.</_></rects>
      <tilted>1</tilted></_>
    <_>
      <rects>
        <_>
          24 17 33 6 -1.</_>
        <_>
          35 19 11 2 9.</_></rects>
      <tilted>0</tilted></_>
    <_>
      <rects>
        <_>
          24 22 24 1 -1.</_>
        <_>
          30 22 12 1 2.</_></rects>
      <tilted>0</tilted></_>
    <_>
      <rects>
        <_>
          25 1 6 5 -1.</_>
        <_>
          27 3 2 5 3.</_></rects>
      <tilted>1</tilted></_>
    <_>
      <rects>
        <_>
          25 5 24 30 -1.</_>
        <_>
          25 20 24 15 2.</_></rects>
      <tilted>0</tilted></_>
    <_>
      <rects>
        <_>
          25 7 3 16 -1.</_>
        <_>
          26 7 1 16 3.</_></rects>
      <tilted>0</tilted></_>
    <_>
      <rects>
        <_>
          25 7 24 5 -1.</_>
        <_>
          31 13 12 5 2.</_></rects>
      <tilted>1</tilted></_>
    <_>
      <rects>
        <_>
          25 11 21 20 -1.</_>
        <_>
          32 11 7 20 3.</_></rects>
      <tilted>0</tilted></_>
    <_>
      <rects>
        <_>
          25 28 2 2 -1.</_>
        <_>
          25 28 1 1 2.</_>
        <_>
          26 29 1 1 2.</_></rects>
      <tilted>0</tilted></_>
    <_>
      <rects>
        <_>
          26 4 4 5 -1.</_>
        <_>
          27 5 2 5 2.</_></rects>
      <tilted>1</tilted></_>
    <_>
      <rects>
        <_>
          26 5 2 10 -1.</_>
        <_>
          26 5 1 5 2.</_>
        <_>
          27 10 1 5 2.</_></rects>
      <tilted>0</tilted></_>
    <_>
      <rects>
        <_>
          26 6 21 22 -1.</_>
        <_>
          26 17 21 11 2.</_></rects>
      <tilted>0</tilted></_>
    <_>
      <rects>
        <_>
          26 8 3 3 -1.</_>
        <_>
          27 9 1 3 3.</_></rects>
      <tilted>1</tilted></_>
    <_>
      <rects>
        <_>
          26 9 3 3 -1.</_>
        <_>
          27 10 1 3 3.</_></rects>
      <tilted>1</tilted></_>
    <_>
      <rects>
        <_>
          26 12 20 21 -1.</_>
        <_>
          36 12 10 21 2.</_></rects>
      <tilted>0</tilted></_>
    <_>
      <rects>
        <_>
          26 14 6 10 -1.</_>
        <_>
          28 14 2 10 3.</_></rects>
      <tilted>0</tilted></_>
    <_>
      <rects>
        <_>
          26 19 17 3 -1.</_>
        <_>
          25 20 17 1 3.</_></rects>
      <tilted>1</tilted></_>
    <_>
      <rects>
        <_>
          26 22 8 1 -1.</_>
        <_>
          28 22 4 1 2.</_></rects>
      <tilted>0</tilted></_>
    <_>
      <rects>
        <_>
          26 29 6 4 -1.</_>
        <_>
          29 29 3 4 2.</_></rects>
      <tilted>0</tilted></_>
    <_>
      <rects>
        <_>
          27 6 28 5 -1.</_>
        <_>
          34 13 14 5 2.</_></rects>
      <tilted>1</tilted></_>
    <_>
      <rects>
        <_>
          27 8 35 9 -1.</_>
        <_>
          27 11 35 3 3.</_></rects>
      <tilted>0</tilted></_>
    <_>
      <rects>
        <_>
          27 10 4 2 -1.</_>
        <_>
          27 10 2 1 2.</_>
        <_>
          29 11 2 1 2.</_></rects>
      <tilted>0</tilted></_>
    <_>
      <rects>
        <_>
          27 17 3 10 -1.</_>
        <_>
          28 17 1 10 3.</_></rects>
      <tilted>0</tilted></_>
    <_>
      <rects>
        <_>
          27 20 15 3 -1.</_>
        <_>
          26 21 15 1 3.</_></rects>
      <tilted>1</tilted></_>
    <_>
      <rects>
        <_>
          27 26 19 6 -1.</_>
        <_>
          27 28 19 2 3.</_></rects>
      <tilted>0</tilted></_>
    <_>
      <rects>
        <_>
          27 30 2 1 -1.</_>
        <_>
          28 30 1 1 2.</_></rects>
      <tilted>0</tilted></_>
    <_>
      <rects>
        <_>
          28 5 3 3 -1.</_>
        <_>
          29 6 1 3 3.</_></rects>
      <tilted>1</tilted></_>
    <_>
      <rects>
        <_>
          28 5 4 5 -1.</_>
        <_>
          29 6 2 5 2.</_></rects>
      <tilted>1</tilted></_>
    <_>
      <rects>
        <_>
          28 9 2 4 -1.</_>
        <_>
          28 9 1 2 2.</_>
        <_>
          29 11 1 2 2.</_></rects>
      <tilted>0</tilted></_>
    <_>
      <rects>
        <_>
          28 10 2 4 -1.</_>
        <_>
          28 10 1 2 2.</_>
        <_>
          29 12 1 2 2.</_></rects>
      <tilted>0</tilted></_>
    <_>
      <rects>
        <_>
          28 12 2 2 -1.</_>
        <_>
          28 12 1 1 2.</_>
        <_>
          29 13 1 1 2.</_></rects>
      <tilted>0</tilted></_>
    <_>
      <rects>
        <_>
          28 12 12 14 -1.</_>
        <_>
          31 12 6 14 2.</_></rects>
      <tilted>0</tilted></_>
    <_>
      <rects>
        <_>
          28 12 12 7 -1.</_>
        <_>
          32 12 4 7 3.</_></rects>
      <tilted>0</tilted></_>
    <_>
      <rects>
        <_>
          28 12 20 4 -1.</_>
        <_>
          28 13 20 2 2.</_></rects>
      <tilted>0</tilted></_>
    <_>
      <rects>
        <_>
          28 21 14 6 -1.</_>
        <_>
          28 23 14 2 3.</_></rects>
      <tilted>0</tilted></_>
    <_>
      <rects>
        <_>
          29 6 3 10 -1.</_>
        <_>
          30 7 1 10 3.</_></rects>
      <tilted>1</tilted></_>
    <_>
      <rects>
        <_>
          29 8 3 3 -1.</_>
        <_>
          30 9 1 3 3.</_></rects>
      <tilted>1</tilted></_>
    <_>
      <rects>
        <_>
          29 9 3 2 -1.</_>
        <_>
          30 10 1 2 3.</_></rects>
      <tilted>1</tilted></_>
    <_>
      <rects>
        <_>
          29 11 24 18 -1.</_>
        <_>
          37 17 8 6 9.</_></rects>
      <tilted>0</tilted></_>
    <_>
      <rects>
        <_>
          29 13 17 21 -1.</_>
        <_>
          29 20 17 7 3.</_></rects>
      <tilted>0</tilted></_>
    <_>
      <rects>
        <_>
          29 27 6 3 -1.</_>
        <_>
          31 29 2 3 3.</_></rects>
      <tilted>1</tilted></_>
    <_>
      <rects>
        <_>
          29 31 2 1 -1.</_>
        <_>
          30 31 1 1 2.</_></rects>
      <tilted>0</tilted></_>
    <_>
      <rects>
        <_>
          30 0 3 5 -1.</_>
        <_>
          31 1 1 5 3.</_></rects>
      <tilted>1</tilted></_>
    <_>
      <rects>
        <_>
          30 1 9 13 -1.</_>
        <_>
          33 4 3 13 3.</_></rects>
      <tilted>1</tilted></_>
    <_>
      <rects>
        <_>
          30 4 3 8 -1.</_>
        <_>
          31 5 1 8 3.</_></rects>
      <tilted>1</tilted></_>
    <_>
      <rects>
        <_>
          30 5 3 9 -1.</_>
        <_>
          31 6 1 9 3.</_></rects>
      <tilted>1</tilted></_>
    <_>
      <rects>
        <_>
          30 8 3 5 -1.</_>
        <_>
          31 9 1 5 3.</_></rects>
      <tilted>1</tilted></_>
    <_>
      <rects>
        <_>
          30 10 21 2 -1.</_>
        <_>
          37 17 7 2 3.</_></rects>
      <tilted>1</tilted></_>
    <_>
      <rects>
        <_>
          30 20 9 4 -1.</_>
        <_>
          30 22 9 2 2.</_></rects>
      <tilted>0</tilted></_>
    <_>
      <rects>
        <_>
          31 0 15 33 -1.</_>
        <_>
          36 0 5 33 3.</_></rects>
      <tilted>0</tilted></_>
    <_>
      <rects>
        <_>
          31 3 4 14 -1.</_>
        <_>
          32 4 2 14 2.</_></rects>
      <tilted>1</tilted></_>
    <_>
      <rects>
        <_>
          31 6 1 4 -1.</_>
        <_>
          31 7 1 2 2.</_></rects>
      <tilted>0</tilted></_>
    <_>
      <rects>
        <_>
          31 6 2 3 -1.</_>
        <_>
          31 7 2 1 3.</_></rects>
      <tilted>0</tilted></_>
    <_>
      <rects>
        <_>
          31 7 27 21 -1.</_>
        <_>
          40 14 9 7 9.</_></rects>
      <tilted>0</tilted></_>
    <_>
      <rects>
        <_>
          32 0 4 17 -1.</_>
        <_>
          33 1 2 17 2.</_></rects>
      <tilted>1</tilted></_>
    <_>
      <rects>
        <_>
          33 0 2 4 -1.</_>
        <_>
          33 1 2 2 2.</_></rects>
      <tilted>0</tilted></_>
    <_>
      <rects>
        <_>
          33 5 8 6 -1.</_>
        <_>
          33 7 8 2 3.</_></rects>
      <tilted>0</tilted></_>
    <_>
      <rects>
        <_>
          33 10 14 3 -1.</_>
        <_>
          33 11 14 1 3.</_></rects>
      <tilted>0</tilted></_>
    <_>
      <rects>
        <_>
          33 15 8 4 -1.</_>
        <_>
          37 15 4 4 2.</_></rects>
      <tilted>0</tilted></_>
    <_>
      <rects>
        <_>
          33 16 8 5 -1.</_>
        <_>
          35 16 4 5 2.</_></rects>
      <tilted>0</tilted></_>
    <_>
      <rects>
        <_>
          33 17 9 5 -1.</_>
        <_>
          36 17 3 5 3.</_></rects>
      <tilted>0</tilted></_>
    <_>
      <rects>
        <_>
          33 17 10 2 -1.</_>
        <_>
          38 17 5 2 2.</_></rects>
      <tilted>0</tilted></_>
    <_>
      <rects>
        <_>
          33 18 9 1 -1.</_>
        <_>
          36 18 3 1 3.</_></rects>
      <tilted>0</tilted></_>
    <_>
      <rects>
        <_>
          33 18 10 3 -1.</_>
        <_>
          38 18 5 3 2.</_></rects>
      <tilted>0</tilted></_>
    <_>
      <rects>
        <_>
          33 18 24 2 -1.</_>
        <_>
          39 18 12 2 2.</_></rects>
      <tilted>0</tilted></_>
    <_>
      <rects>
        <_>
          34 1 3 16 -1.</_>
        <_>
          35 2 1 16 3.</_></rects>
      <tilted>1</tilted></_>
    <_>
      <rects>
        <_>
          34 15 6 3 -1.</_>
        <_>
          37 15 3 3 2.</_></rects>
      <tilted>0</tilted></_>
    <_>
      <rects>
        <_>
          34 15 8 5 -1.</_>
        <_>
          38 15 4 5 2.</_></rects>
      <tilted>0</tilted></_>
    <_>
      <rects>
        <_>
          34 20 14 3 -1.</_>
        <_>
          34 21 14 1 3.</_></rects>
      <tilted>0</tilted></_>
    <_>
      <rects>
        <_>
          34 23 2 4 -1.</_>
        <_>
          33 24 2 2 2.</_></rects>
      <tilted>1</tilted></_>
    <_>
      <rects>
        <_>
          34 27 6 9 -1.</_>
        <_>
          36 27 2 9 3.</_></rects>
      <tilted>0</tilted></_>
    <_>
      <rects>
        <_>
          35 0 3 21 -1.</_>
        <_>
          36 0 1 21 3.</_></rects>
      <tilted>0</tilted></_>
    <_>
      <rects>
        <_>
          35 1 9 35 -1.</_>
        <_>
          38 1 3 35 3.</_></rects>
      <tilted>0</tilted></_>
    <_>
      <rects>
        <_>
          35 8 2 12 -1.</_>
        <_>
          35 8 1 6 2.</_>
        <_>
          36 14 1 6 2.</_></rects>
      <tilted>0</tilted></_>
    <_>
      <rects>
        <_>
          35 14 9 8 -1.</_>
        <_>
          38 14 3 8 3.</_></rects>
      <tilted>0</tilted></_>
    <_>
      <rects>
        <_>
          35 19 8 3 -1.</_>
        <_>
          37 19 4 3 2.</_></rects>
      <tilted>0</tilted></_>
    <_>
      <rects>
        <_>
          35 19 9 2 -1.</_>
        <_>
          38 19 3 2 3.</_></rects>
      <tilted>0</tilted></_>
    <_>
      <rects>
        <_>
          35 20 7 4 -1.</_>
        <_>
          35 21 7 2 2.</_></rects>
      <tilted>0</tilted></_>
    <_>
      <rects>
        <_>
          35 21 6 2 -1.</_>
        <_>
          37 21 2 2 3.</_></rects>
      <tilted>0</tilted></_>
    <_>
      <rects>
        <_>
          35 21 5 12 -1.</_>
        <_>
          35 24 5 6 2.</_></rects>
      <tilted>0</tilted></_>
    <_>
      <rects>
        <_>
          35 24 2 3 -1.</_>
        <_>
          34 25 2 1 3.</_></rects>
      <tilted>1</tilted></_>
    <_>
      <rects>
        <_>
          35 26 10 9 -1.</_>
        <_>
          35 29 10 3 3.</_></rects>
      <tilted>0</tilted></_>
    <_>
      <rects>
        <_>
          36 9 9 3 -1.</_>
        <_>
          39 10 3 1 9.</_></rects>
      <tilted>0</tilted></_>
    <_>
      <rects>
        <_>
          36 12 8 3 -1.</_>
        <_>
          38 14 4 3 2.</_></rects>
      <tilted>1</tilted></_>
    <_>
      <rects>
        <_>
          36 20 3 1 -1.</_>
        <_>
          37 20 1 1 3.</_></rects>
      <tilted>0</tilted></_>
    <_>
      <rects>
        <_>
          36 21 4 3 -1.</_>
        <_>
          36 22 4 1 3.</_></rects>
      <tilted>0</tilted></_>
    <_>
      <rects>
        <_>
          37 1 22 15 -1.</_>
        <_>
          37 1 11 15 2.</_></rects>
      <tilted>1</tilted></_>
    <_>
      <rects>
        <_>
          37 12 6 22 -1.</_>
        <_>
          39 12 2 22 3.</_></rects>
      <tilted>0</tilted></_>
    <_>
      <rects>
        <_>
          37 15 4 3 -1.</_>
        <_>
          38 16 2 3 2.</_></rects>
      <tilted>1</tilted></_>
    <_>
      <rects>
        <_>
          37 17 6 6 -1.</_>
        <_>
          39 19 2 2 9.</_></rects>
      <tilted>0</tilted></_>
    <_>
      <rects>
        <_>
          37 17 6 6 -1.</_>
        <_>
          37 17 3 3 2.</_>
        <_>
          40 20 3 3 2.</_></rects>
      <tilted>0</tilted></_>
    <_>
      <rects>
        <_>
          37 18 6 4 -1.</_>
        <_>
          37 18 3 2 2.</_>
        <_>
          40 20 3 2 2.</_></rects>
      <tilted>0</tilted></_>
    <_>
      <rects>
        <_>
          37 18 8 14 -1.</_>
        <_>
          37 18 8 7 2.</_></rects>
      <tilted>1</tilted></_>
    <_>
      <rects>
        <_>
          37 20 3 1 -1.</_>
        <_>
          38 20 1 1 3.</_></rects>
      <tilted>0</tilted></_>
    <_>
      <rects>
        <_>
          37 21 2 3 -1.</_>
        <_>
          37 22 2 1 3.</_></rects>
      <tilted>0</tilted></_>
    <_>
      <rects>
        <_>
          38 3 4 25 -1.</_>
        <_>
          39 3 2 25 2.</_></rects>
      <tilted>0</tilted></_>
    <_>
      <rects>
        <_>
          38 15 4 11 -1.</_>
        <_>
          39 15 2 11 2.</_></rects>
      <tilted>0</tilted></_>
    <_>
      <rects>
        <_>
          38 17 4 6 -1.</_>
        <_>
          38 19 4 2 3.</_></rects>
      <tilted>0</tilted></_>
    <_>
      <rects>
        <_>
          38 18 4 4 -1.</_>
        <_>
          38 18 2 2 2.</_>
        <_>
          40 20 2 2 2.</_></rects>
      <tilted>0</tilted></_>
    <_>
      <rects>
        <_>
          38 18 6 3 -1.</_>
        <_>
          40 18 2 3 3.</_></rects>
      <tilted>0</tilted></_>
    <_>
      <rects>
        <_>
          38 18 4 3 -1.</_>
        <_>
          37 19 4 1 3.</_></rects>
      <tilted>1</tilted></_>
    <_>
      <rects>
        <_>
          38 19 3 1 -1.</_>
        <_>
          39 19 1 1 3.</_></rects>
      <tilted>0</tilted></_>
    <_>
      <rects>
        <_>
          38 20 3 1 -1.</_>
        <_>
          39 20 1 1 3.</_></rects>
      <tilted>0</tilted></_>
    <_>
      <rects>
        <_>
          38 25 3 3 -1.</_>
        <_>
          39 26 1 1 9.</_></rects>
      <tilted>0</tilted></_>
    <_>
      <rects>
        <_>
          38 26 38 10 -1.</_>
        <_>
          57 26 19 10 2.</_></rects>
      <tilted>0</tilted></_>
    <_>
      <rects>
        <_>
          38 30 18 6 -1.</_>
        <_>
          38 30 9 3 2.</_>
        <_>
          47 33 9 3 2.</_></rects>
      <tilted>0</tilted></_>
    <_>
      <rects>
        <_>
          38 31 20 3 -1.</_>
        <_>
          38 32 20 1 3.</_></rects>
      <tilted>0</tilted></_>
    <_>
      <rects>
        <_>
          39 7 5 6 -1.</_>
        <_>
          39 9 5 2 3.</_></rects>
      <tilted>0</tilted></_>
    <_>
      <rects>
        <_>
          39 9 7 6 -1.</_>
        <_>
          37 11 7 2 3.</_></rects>
      <tilted>1</tilted></_>
    <_>
      <rects>
        <_>
          39 12 3 15 -1.</_>
        <_>
          39 17 3 5 3.</_></rects>
      <tilted>0</tilted></_>
    <_>
      <rects>
        <_>
          39 16 6 5 -1.</_>
        <_>
          41 16 2 5 3.</_></rects>
      <tilted>0</tilted></_>
    <_>
      <rects>
        <_>
          39 17 6 4 -1.</_>
        <_>
          41 17 2 4 3.</_></rects>
      <tilted>0</tilted></_>
    <_>
      <rects>
        <_>
          39 19 3 1 -1.</_>
        <_>
          40 19 1 1 3.</_></rects>
      <tilted>0</tilted></_>
    <_>
      <rects>
        <_>
          39 19 2 2 -1.</_>
        <_>
          40 19 1 2 2.</_></rects>
      <tilted>0</tilted></_>
    <_>
      <rects>
        <_>
          39 19 2 3 -1.</_>
        <_>
          38 20 2 1 3.</_></rects>
      <tilted>1</tilted></_>
    <_>
      <rects>
        <_>
          39 19 9 7 -1.</_>
        <_>
          42 22 3 7 3.</_></rects>
      <tilted>1</tilted></_>
    <_>
      <rects>
        <_>
          39 19 12 3 -1.</_>
        <_>
          43 20 4 1 9.</_></rects>
      <tilted>0</tilted></_>
    <_>
      <rects>
        <_>
          39 20 2 1 -1.</_>
        <_>
          40 20 1 1 2.</_></rects>
      <tilted>0</tilted></_>
    <_>
      <rects>
        <_>
          39 20 3 1 -1.</_>
        <_>
          40 20 1 1 3.</_></rects>
      <tilted>0</tilted></_>
    <_>
      <rects>
        <_>
          39 21 2 1 -1.</_>
        <_>
          40 21 1 1 2.</_></rects>
      <tilted>0</tilted></_>
    <_>
      <rects>
        <_>
          39 21 2 2 -1.</_>
        <_>
          39 21 1 1 2.</_>
        <_>
          40 22 1 1 2.</_></rects>
      <tilted>0</tilted></_>
    <_>
      <rects>
        <_>
          39 26 3 8 -1.</_>
        <_>
          40 26 1 8 3.</_></rects>
      <tilted>0</tilted></_>
    <_>
      <rects>
        <_>
          40 0 2 36 -1.</_>
        <_>
          40 0 1 18 2.</_>
        <_>
          41 18 1 18 2.</_></rects>
      <tilted>0</tilted></_>
    <_>
      <rects>
        <_>
          40 0 24 16 -1.</_>
        <_>
          40 0 12 16 2.</_></rects>
      <tilted>1</tilted></_>
    <_>
      <rects>
        <_>
          40 1 22 3 -1.</_>
        <_>
          39 2 22 1 3.</_></rects>
      <tilted>1</tilted></_>
    <_>
      <rects>
        <_>
          40 7 4 6 -1.</_>
        <_>
          40 9 4 2 3.</_></rects>
      <tilted>0</tilted></_>
    <_>
      <rects>
        <_>
          40 17 4 2 -1.</_>
        <_>
          41 18 2 2 2.</_></rects>
      <tilted>1</tilted></_>
    <_>
      <rects>
        <_>
          40 19 2 1 -1.</_>
        <_>
          41 19 1 1 2.</_></rects>
      <tilted>0</tilted></_>
    <_>
      <rects>
        <_>
          40 19 3 1 -1.</_>
        <_>
          41 19 1 1 3.</_></rects>
      <tilted>0</tilted></_>
    <_>
      <rects>
        <_>
          40 19 4 2 -1.</_>
        <_>
          41 19 2 2 2.</_></rects>
      <tilted>0</tilted></_>
    <_>
      <rects>
        <_>
          40 19 27 14 -1.</_>
        <_>
          49 19 9 14 3.</_></rects>
      <tilted>0</tilted></_>
    <_>
      <rects>
        <_>
          40 20 1 2 -1.</_>
        <_>
          40 21 1 1 2.</_></rects>
      <tilted>0</tilted></_>
    <_>
      <rects>
        <_>
          40 20 1 2 -1.</_>
        <_>
          40 20 1 1 2.</_></rects>
      <tilted>1</tilted></_>
    <_>
      <rects>
        <_>
          41 2 22 3 -1.</_>
        <_>
          40 3 22 1 3.</_></rects>
      <tilted>1</tilted></_>
    <_>
      <rects>
        <_>
          41 14 2 4 -1.</_>
        <_>
          41 14 1 2 2.</_>
        <_>
          42 16 1 2 2.</_></rects>
      <tilted>0</tilted></_>
    <_>
      <rects>
        <_>
          41 16 4 4 -1.</_>
        <_>
          42 17 2 4 2.</_></rects>
      <tilted>1</tilted></_>
    <_>
      <rects>
        <_>
          41 16 15 3 -1.</_>
        <_>
          41 17 15 1 3.</_></rects>
      <tilted>0</tilted></_>
    <_>
      <rects>
        <_>
          41 17 1 3 -1.</_>
        <_>
          40 18 1 1 3.</_></rects>
      <tilted>1</tilted></_>
    <_>
      <rects>
        <_>
          41 18 1 3 -1.</_>
        <_>
          40 19 1 1 3.</_></rects>
      <tilted>1</tilted></_>
    <_>
      <rects>
        <_>
          41 18 6 4 -1.</_>
        <_>
          43 20 2 4 3.</_></rects>
      <tilted>1</tilted></_>
    <_>
      <rects>
        <_>
          41 19 1 3 -1.</_>
        <_>
          40 20 1 1 3.</_></rects>
      <tilted>1</tilted></_>
    <_>
      <rects>
        <_>
          41 20 1 2 -1.</_>
        <_>
          41 20 1 1 2.</_></rects>
      <tilted>1</tilted></_>
    <_>
      <rects>
        <_>
          41 20 9 9 -1.</_>
        <_>
          44 23 3 9 3.</_></rects>
      <tilted>1</tilted></_>
    <_>
      <rects>
        <_>
          42 5 18 3 -1.</_>
        <_>
          41 6 18 1 3.</_></rects>
      <tilted>1</tilted></_>
    <_>
      <rects>
        <_>
          42 5 27 3 -1.</_>
        <_>
          41 6 27 1 3.</_></rects>
      <tilted>1</tilted></_>
    <_>
      <rects>
        <_>
          42 12 3 3 -1.</_>
        <_>
          43 13 1 1 9.</_></rects>
      <tilted>0</tilted></_>
    <_>
      <rects>
        <_>
          42 13 3 7 -1.</_>
        <_>
          43 14 1 7 3.</_></rects>
      <tilted>1</tilted></_>
    <_>
      <rects>
        <_>
          42 18 1 3 -1.</_>
        <_>
          41 19 1 1 3.</_></rects>
      <tilted>1</tilted></_>
    <_>
      <rects>
        <_>
          42 20 9 8 -1.</_>
        <_>
          42 22 9 4 2.</_></rects>
      <tilted>0</tilted></_>
    <_>
      <rects>
        <_>
          42 25 24 6 -1.</_>
        <_>
          48 25 12 6 2.</_></rects>
      <tilted>0</tilted></_>
    <_>
      <rects>
        <_>
          43 1 3 1 -1.</_>
        <_>
          44 1 1 1 3.</_></rects>
      <tilted>0</tilted></_>
    <_>
      <rects>
        <_>
          43 15 2 2 -1.</_>
        <_>
          43 15 1 1 2.</_>
        <_>
          44 16 1 1 2.</_></rects>
      <tilted>0</tilted></_>
    <_>
      <rects>
        <_>
          43 16 4 7 -1.</_>
        <_>
          44 17 2 7 2.</_></rects>
      <tilted>1</tilted></_>
    <_>
      <rects>
        <_>
          43 17 1 3 -1.</_>
        <_>
          42 18 1 1 3.</_></rects>
      <tilted>1</tilted></_>
    <_>
      <rects>
        <_>
          43 17 20 3 -1.</_>
        <_>
          43 18 20 1 3.</_></rects>
      <tilted>0</tilted></_>
    <_>
      <rects>
        <_>
          43 19 3 4 -1.</_>
        <_>
          44 20 1 4 3.</_></rects>
      <tilted>1</tilted></_>
    <_>
      <rects>
        <_>
          43 29 3 6 -1.</_>
        <_>
          44 29 1 6 3.</_></rects>
      <tilted>0</tilted></_>
    <_>
      <rects>
        <_>
          44 2 3 17 -1.</_>
        <_>
