<?xml version="1.0"?>
<opencv_storage>
<stage2>
  <maxWeakCount>9</maxWeakCount>
  <stageThreshold>-1.2556706666946411e+00</stageThreshold>
  <weakClassifiers>
    <_>
      <internalNodes>
        0 -1 5251647 5.3354387637227774e-04</internalNodes>
      <leafValues>
        -3.4083601832389832e-01 6.3076925277709961e-01</leafValues></_>
    <_>
      <internalNodes>
        0 -1 5722905 1.4177919365465641e-03</internalNodes>
      <leafValues>
        -1.9348831474781036e-01 8.8258635997772217e-01</leafValues></_>
    <_>
      <internalNodes>
        0 -1 5496231 5.8200202882289886e-02</internalNodes>
      <leafValues>
        3.1434738636016846e-01 -7.5600355863571167e-01</leafValues></_>
    <_>
      <internalNodes>
        0 -1 5723449 -2.0312496926635504e-03</internalNodes>
      <leafValues>
        8.6567240953445435e-01 -3.5521838068962097e-01</leafValues></_>
    <_>
      <internalNodes>
        0 -1 5185428 -5.9835948050022125e-02</internalNodes>
      <leafValues>
        -8.9462333917617798e-01 3.2292556762695312e-01</leafValues></_>
    <_>
      <internalNodes>
        0 -1 4847176 -1.2147561646997929e-03</internalNodes>
      <leafValues>
        8.2667416334152222e-01 -3.3644458651542664e-01</leafValues></_>
    <_>
      <internalNodes>
        0 -1 4397301 8.4233714733272791e-04</internalNodes>
      <leafValues>
        -2.4499015510082245e-01 8.3200973272323608e-01</leafValues></_>
    <_>
      <internalNodes>
        0 -1 2991304 1.2548391241580248e-03</internalNodes>
      <leafValues>
        -1.7645555734634399e-01 8.0828118324279785e-01</leafValues></_>
    <_>
      <internalNodes>
        0 -1 3279156 -8.2839076640084386e-04</internalNodes>
      <leafValues>
        7.5082480907440186e-01 -2.4551056325435638e-01</leafValues></_></weakClassifiers></stage2>
</opencv_storage>
