<?xml version="1.0"?>
<opencv_storage>
<stage9>
  <maxWeakCount>24</maxWeakCount>
  <stageThreshold>-1.0555893182754517e+00</stageThreshold>
  <weakClassifiers>
    <_>
      <internalNodes>
        0 -1 5038923 9.2834248789586127e-05</internalNodes>
      <leafValues>
        -2.1142856776714325e-01 4.7947761416435242e-01</leafValues></_>
    <_>
      <internalNodes>
        0 -1 6722549 -4.0983769576996565e-04</internalNodes>
      <leafValues>
        6.7354232072830200e-01 -1.1586246639490128e-01</leafValues></_>
    <_>
      <internalNodes>
        0 -1 2999913 1.5496350824832916e-03</internalNodes>
      <leafValues>
        -1.4779706299304962e-01 5.4269820451736450e-01</leafValues></_>
    <_>
      <internalNodes>
        0 -1 6212670 -3.3461191924288869e-04</internalNodes>
      <leafValues>
        5.4829770326614380e-01 -1.5681824088096619e-01</leafValues></_>
    <_>
      <internalNodes>
        0 -1 6212670 5.9938149206573144e-05</internalNodes>
      <leafValues>
        -2.5365462899208069e-01 4.0778532624244690e-01</leafValues></_>
    <_>
      <internalNodes>
        0 -1 4809555 3.6177033325657248e-04</internalNodes>
      <leafValues>
        1.6725239157676697e-01 -5.4758828878402710e-01</leafValues></_>
    <_>
      <internalNodes>
        0 -1 4175559 1.5149591490626335e-04</internalNodes>
      <leafValues>
        -1.3228413462638855e-01 5.9591937065124512e-01</leafValues></_>
    <_>
      <internalNodes>
        0 -1 3650575 3.0589595437049866e-02</internalNodes>
      <leafValues>
        1.1382202059030533e-01 -7.1133780479431152e-01</leafValues></_>
    <_>
      <internalNodes>
        0 -1 1502606 -2.0909251179546118e-03</internalNodes>
      <leafValues>
        -5.5862635374069214e-01 1.5925985574722290e-01</leafValues></_>
    <_>
      <internalNodes>
        0 -1 7166961 -8.0269924364984035e-04</internalNodes>
      <leafValues>
        8.1926560401916504e-01 -1.1768210679292679e-01</leafValues></_>
    <_>
      <internalNodes>
        0 -1 3640199 -3.2622277736663818e-02</internalNodes>
      <leafValues>
        -6.3854503631591797e-01 1.5292468667030334e-01</leafValues></_>
    <_>
      <internalNodes>
        0 -1 4930673 1.6345057520084083e-04</internalNodes>
      <leafValues>
        -2.6287510991096497e-01 3.2971972227096558e-01</leafValues></_>
    <_>
      <internalNodes>
        0 -1 3691427 -2.6192056015133858e-02</internalNodes>
      <leafValues>
        -8.4959167242050171e-01 1.0977399349212646e-01</leafValues></_>
    <_>
      <internalNodes>
        0 -1 3137872 -1.7867598216980696e-04</internalNodes>
      <leafValues>
        6.5999341011047363e-01 -1.4189472794532776e-01</leafValues></_>
    <_>
      <internalNodes>
        0 -1 3133396 1.9264807633589953e-04</internalNodes>
      <leafValues>
        -1.4395944774150848e-01 5.5223995447158813e-01</leafValues></_>
    <_>
      <internalNodes>
        0 -1 4782057 1.6380026863771491e-05</internalNodes>
      <leafValues>
        -2.5498199462890625e-01 3.2586190104484558e-01</leafValues></_>
    <_>
      <internalNodes>
        0 -1 1737592 -1.2711629096884280e-04</internalNodes>
      <leafValues>
        -6.2139040231704712e-01 1.4173601567745209e-01</leafValues></_>
    <_>
      <internalNodes>
        0 -1 3893466 -4.9797294195741415e-04</internalNodes>
      <leafValues>
        5.8252328634262085e-01 -1.4649249613285065e-01</leafValues></_>
    <_>
      <internalNodes>
        0 -1 6438913 1.6231805086135864e-02</internalNodes>
      <leafValues>
        1.0717317461967468e-01 -7.9463016986846924e-01</leafValues></_>
    <_>
      <internalNodes>
        0 -1 5472332 1.1474094208097085e-05</internalNodes>
      <leafValues>
        9.3107648193836212e-02 -7.2026062011718750e-01</leafValues></_>
    <_>
      <internalNodes>
        0 -1 5459306 9.0900575742125511e-05</internalNodes>
      <leafValues>
        -2.7766427397727966e-01 2.9876223206520081e-01</leafValues></_>
    <_>
      <internalNodes>
        0 -1 5942199 8.4856423200108111e-05</internalNodes>
      <leafValues>
        -2.0403337478637695e-01 3.9331415295600891e-01</leafValues></_>
    <_>
      <internalNodes>
        0 -1 5942194 1.0776125418487936e-04</internalNodes>
      <leafValues>
        -1.5296722948551178e-01 5.6321710348129272e-01</leafValues></_>
    <_>
      <internalNodes>
        0 -1 6698305 -7.9430406913161278e-05</internalNodes>
      <leafValues>
        -4.4973489642143250e-01 1.9525861740112305e-01</leafValues></_></weakClassifiers></stage9>
</opencv_storage>
