<?xml version="1.0"?>
<opencv_storage>
<stage13>
  <maxWeakCount>12</maxWeakCount>
  <stageThreshold>-1.3241356611251831e+00</stageThreshold>
  <weakClassifiers>
    <_>
      <internalNodes>
        0 -1 619185 2.4178938474506140e-05</internalNodes>
      <leafValues>
        5.3264605998992920e-01 -5.0115472078323364e-01</leafValues></_>
    <_>
      <internalNodes>
        0 -1 4110571 2.8134880267316476e-05</internalNodes>
      <leafValues>
        2.8684681653976440e-01 -6.9715660810470581e-01</leafValues></_>
    <_>
      <internalNodes>
        0 -1 619185 -1.3391738320933655e-05</internalNodes>
      <leafValues>
        -6.5750724077224731e-01 2.8259170055389404e-01</leafValues></_>
    <_>
      <internalNodes>
        0 -1 6619746 -6.8355438997969031e-05</internalNodes>
      <leafValues>
        -7.0864152908325195e-01 1.8166027963161469e-01</leafValues></_>
    <_>
      <internalNodes>
        0 -1 5467449 -3.2715939596528187e-05</internalNodes>
      <leafValues>
        -7.5071865320205688e-01 1.6303944587707520e-01</leafValues></_>
    <_>
      <internalNodes>
        0 -1 5797064 -2.0695952116511762e-05</internalNodes>
      <leafValues>
        -5.5830770730972290e-01 2.2847528755664825e-01</leafValues></_>
    <_>
      <internalNodes>
        0 -1 4961741 2.0310115069150925e-03</internalNodes>
      <leafValues>
        -3.6352837085723877e-01 3.6513611674308777e-01</leafValues></_>
    <_>
      <internalNodes>
        0 -1 58235 1.5103974146768451e-04</internalNodes>
      <leafValues>
        2.7584210038185120e-01 -4.9118769168853760e-01</leafValues></_>
    <_>
      <internalNodes>
        0 -1 165014 1.7477846145629883e-01</internalNodes>
      <leafValues>
        -2.2687888145446777e-01 7.1249985694885254e-01</leafValues></_>
    <_>
      <internalNodes>
        0 -1 900781 -6.2247283756732941e-02</internalNodes>
      <leafValues>
        6.7183643579483032e-01 -1.9979794323444366e-01</leafValues></_>
    <_>
      <internalNodes>
        0 -1 6613937 3.6402801924850792e-05</internalNodes>
      <leafValues>
        2.3956118524074554e-01 -6.4285051822662354e-01</leafValues></_>
    <_>
      <internalNodes>
        0 -1 5469959 2.0589073756127618e-05</internalNodes>
      <leafValues>
        1.4003941416740417e-01 -8.2118266820907593e-01</leafValues></_></weakClassifiers></stage13>
</opencv_storage>
