<?xml version="1.0"?>
<opencv_storage>
<stage7>
  <maxWeakCount>24</maxWeakCount>
  <stageThreshold>-1.4675039052963257e+00</stageThreshold>
  <weakClassifiers>
    <_>
      <internalNodes>
        0 -1 688083 -2.7566683292388916e-01</internalNodes>
      <leafValues>
        -6.9135802984237671e-01 3.5888502001762390e-01</leafValues></_>
    <_>
      <internalNodes>
        0 -1 1811181 -2.3665193468332291e-02</internalNodes>
      <leafValues>
        4.6949622035026550e-01 -2.2191996872425079e-01</leafValues></_>
    <_>
      <internalNodes>
        0 -1 5863899 -1.6740916762501001e-03</internalNodes>
      <leafValues>
        7.9255658388137817e-01 -1.6914279758930206e-01</leafValues></_>
    <_>
      <internalNodes>
        0 -1 70676 -2.0989823678974062e-04</internalNodes>
      <leafValues>
        -6.0462039709091187e-01 1.7687918245792389e-01</leafValues></_>
    <_>
      <internalNodes>
        0 -1 5245148 -2.5333529338240623e-03</internalNodes>
      <leafValues>
        8.6306160688400269e-01 -1.7544983327388763e-01</leafValues></_>
    <_>
      <internalNodes>
        0 -1 65064 -4.8376934137195349e-04</internalNodes>
      <leafValues>
        -4.2935538291931152e-01 2.7180841565132141e-01</leafValues></_>
    <_>
      <internalNodes>
        0 -1 4914218 3.5898527130484581e-04</internalNodes>
      <leafValues>
        1.9670395553112030e-01 -5.1214760541915894e-01</leafValues></_>
    <_>
      <internalNodes>
        0 -1 4290547 7.0222758222371340e-04</internalNodes>
      <leafValues>
        -1.5867525339126587e-01 6.5016263723373413e-01</leafValues></_>
    <_>
      <internalNodes>
        0 -1 5023213 1.0569737059995532e-04</internalNodes>
      <leafValues>
        -3.7700468301773071e-01 2.6676505804061890e-01</leafValues></_>
    <_>
      <internalNodes>
        0 -1 5897570 2.7481798315420747e-04</internalNodes>
      <leafValues>
        -2.8256589174270630e-01 3.3338299393653870e-01</leafValues></_>
    <_>
      <internalNodes>
        0 -1 1402071 -2.7903165573661681e-06</internalNodes>
      <leafValues>
        -4.1691470146179199e-01 2.0615422725677490e-01</leafValues></_>
    <_>
      <internalNodes>
        0 -1 6817837 1.1206982657313347e-02</internalNodes>
      <leafValues>
        -1.4116302132606506e-01 6.0828262567520142e-01</leafValues></_>
    <_>
      <internalNodes>
        0 -1 5572394 -6.1083774198777974e-05</internalNodes>
      <leafValues>
        -7.8787511587142944e-01 1.2734019756317139e-01</leafValues></_>
    <_>
      <internalNodes>
        0 -1 5853251 1.5707419152022339e-06</internalNodes>
      <leafValues>
        -2.4328926205635071e-01 3.9871093630790710e-01</leafValues></_>
    <_>
      <internalNodes>
        0 -1 4523523 5.6347314966842532e-05</internalNodes>
      <leafValues>
        -1.7744423449039459e-01 4.9232032895088196e-01</leafValues></_>
    <_>
      <internalNodes>
        0 -1 218942 -4.8193971451837569e-05</internalNodes>
      <leafValues>
        -4.1444754600524902e-01 2.1685349941253662e-01</leafValues></_>
    <_>
      <internalNodes>
        0 -1 5050977 -7.7672069892287254e-04</internalNodes>
      <leafValues>
        7.1589958667755127e-01 -1.3690853118896484e-01</leafValues></_>
    <_>
      <internalNodes>
        0 -1 142795 2.6634361594915390e-02</internalNodes>
      <leafValues>
        -9.9822454154491425e-02 7.4844735860824585e-01</leafValues></_>
    <_>
      <internalNodes>
        0 -1 6709421 3.1628325814381242e-04</internalNodes>
      <leafValues>
        -2.2086384892463684e-01 3.6233329772949219e-01</leafValues></_>
    <_>
      <internalNodes>
        0 -1 943305 -8.5508378106169403e-05</internalNodes>
      <leafValues>
        -4.3630397319793701e-01 2.1906264126300812e-01</leafValues></_>
    <_>
      <internalNodes>
        0 -1 3915660 1.4352424768730998e-03</internalNodes>
      <leafValues>
        -1.3610555231571198e-01 6.9250982999801636e-01</leafValues></_>
    <_>
      <internalNodes>
        0 -1 613631 4.7488528070971370e-04</internalNodes>
      <leafValues>
        2.5078818202018738e-01 -3.4401407837867737e-01</leafValues></_>
    <_>
      <internalNodes>
        0 -1 88568 -2.5041081011295319e-02</internalNodes>
      <leafValues>
        5.6376761198043823e-01 -1.6305749118328094e-01</leafValues></_>
    <_>
      <internalNodes>
        0 -1 666045 -1.6009539365768433e-01</internalNodes>
      <leafValues>
        5.2498364448547363e-01 -1.6236494481563568e-01</leafValues></_></weakClassifiers></stage7>
</opencv_storage>
