<?xml version="1.0"?>
<opencv_storage>
<stage14>
  <maxWeakCount>27</maxWeakCount>
  <stageThreshold>-1.0337085723876953e+00</stageThreshold>
  <weakClassifiers>
    <_>
      <internalNodes>
        0 -1 5254674 -8.9095185103360564e-05</internalNodes>
      <leafValues>
        5.3655791282653809e-01 -1.0451977699995041e-01</leafValues></_>
    <_>
      <internalNodes>
        0 -1 4170652 -6.9309091486502439e-05</internalNodes>
      <leafValues>
        4.9858617782592773e-01 -1.4965054392814636e-01</leafValues></_>
    <_>
      <internalNodes>
        0 -1 4049322 1.0824690252775326e-04</internalNodes>
      <leafValues>
        -1.5617454051971436e-01 5.6268936395645142e-01</leafValues></_>
    <_>
      <internalNodes>
        0 -1 6230125 1.4896069160386105e-06</internalNodes>
      <leafValues>
        -1.8062661588191986e-01 3.9751514792442322e-01</leafValues></_>
    <_>
      <internalNodes>
        0 -1 7229604 1.6775974654592574e-04</internalNodes>
      <leafValues>
        -1.2104943394660950e-01 6.0572022199630737e-01</leafValues></_>
    <_>
      <internalNodes>
        0 -1 7711693 3.9488682523369789e-04</internalNodes>
      <leafValues>
        1.8288201093673706e-01 -3.7771916389465332e-01</leafValues></_>
    <_>
      <internalNodes>
        0 -1 3402105 -2.7585122734308243e-02</internalNodes>
      <leafValues>
        -7.7441674470901489e-01 8.0665029585361481e-02</leafValues></_>
    <_>
      <internalNodes>
        0 -1 3567562 -4.8362882807850838e-03</internalNodes>
      <leafValues>
        5.1570236682891846e-01 -1.4385673403739929e-01</leafValues></_>
    <_>
      <internalNodes>
        0 -1 4809902 1.0348684736527503e-04</internalNodes>
      <leafValues>
        2.2339066863059998e-01 -3.9173075556755066e-01</leafValues></_>
    <_>
      <internalNodes>
        0 -1 6156610 7.9671823186799884e-05</internalNodes>
      <leafValues>
        -1.9854897260665894e-01 3.4250277280807495e-01</leafValues></_>
    <_>
      <internalNodes>
        0 -1 7484204 -5.9039024636149406e-03</internalNodes>
      <leafValues>
        6.2467634677886963e-01 -1.0113728046417236e-01</leafValues></_>
    <_>
      <internalNodes>
        0 -1 6040071 2.8777070838259533e-05</internalNodes>
      <leafValues>
        -1.3138760626316071e-01 5.1360392570495605e-01</leafValues></_>
    <_>
      <internalNodes>
        0 -1 5379820 2.0163986831903458e-02</internalNodes>
      <leafValues>
        -1.6535656154155731e-01 3.9822599291801453e-01</leafValues></_>
    <_>
      <internalNodes>
        0 -1 19449 1.5681234002113342e-01</internalNodes>
      <leafValues>
        -1.8104875087738037e-01 4.5678138732910156e-01</leafValues></_>
    <_>
      <internalNodes>
        0 -1 2992645 -9.2272821348160505e-05</internalNodes>
      <leafValues>
        6.2910729646682739e-01 -1.0554218292236328e-01</leafValues></_>
    <_>
      <internalNodes>
        0 -1 1282976 6.5358658321201801e-04</internalNodes>
      <leafValues>
        1.7447856068611145e-01 -4.1723263263702393e-01</leafValues></_>
    <_>
      <internalNodes>
        0 -1 4184862 -4.8899011744651943e-05</internalNodes>
      <leafValues>
        5.5870503187179565e-01 -1.3013048470020294e-01</leafValues></_>
    <_>
      <internalNodes>
        0 -1 6257366 5.8145649731159210e-02</internalNodes>
      <leafValues>
        9.4091355800628662e-02 -7.6487267017364502e-01</leafValues></_>
    <_>
      <internalNodes>
        0 -1 4726420 1.9853000412695110e-04</internalNodes>
      <leafValues>
        -1.3913762569427490e-01 5.4094183444976807e-01</leafValues></_>
    <_>
      <internalNodes>
        0 -1 4316471 1.0601477697491646e-02</internalNodes>
      <leafValues>
        -2.2556085884571075e-01 3.2994067668914795e-01</leafValues></_>
    <_>
      <internalNodes>
        0 -1 4424268 6.5290695056319237e-03</internalNodes>
      <leafValues>
        1.9594898819923401e-01 -4.0637102723121643e-01</leafValues></_>
    <_>
      <internalNodes>
        0 -1 5881251 2.3995460651349276e-05</internalNodes>
      <leafValues>
        -2.2318093478679657e-01 3.1174477934837341e-01</leafValues></_>
    <_>
      <internalNodes>
        0 -1 3399232 -6.2038619944360107e-05</internalNodes>
      <leafValues>
        6.0418963432312012e-01 -1.0737632960081100e-01</leafValues></_>
    <_>
      <internalNodes>
        0 -1 2993054 1.2983276974409819e-04</internalNodes>
      <leafValues>
        -1.5236449241638184e-01 4.6140781044960022e-01</leafValues></_>
    <_>
      <internalNodes>
        0 -1 1466669 -9.7120413556694984e-04</internalNodes>
      <leafValues>
        -4.3973958492279053e-01 1.7653767764568329e-01</leafValues></_>
    <_>
      <internalNodes>
        0 -1 4078754 6.3654064433649182e-05</internalNodes>
      <leafValues>
        -2.2388826310634613e-01 3.0049929022789001e-01</leafValues></_>
    <_>
      <internalNodes>
        0 -1 4461629 -6.4587875385768712e-05</internalNodes>
      <leafValues>
        -3.0250188708305359e-01 2.1623045206069946e-01</leafValues></_></weakClassifiers></stage14>
</opencv_storage>
