<?xml version="1.0"?>
<opencv_storage>
<stage5>
  <maxWeakCount>17</maxWeakCount>
  <stageThreshold>-1.2866159677505493e+00</stageThreshold>
  <weakClassifiers>
    <_>
      <internalNodes>
        0 -1 5358492 2.1878106053918600e-04</internalNodes>
      <leafValues>
        -2.1858863532543182e-01 5.2165353298187256e-01</leafValues></_>
    <_>
      <internalNodes>
        0 -1 6930942 -1.9188706064596772e-03</internalNodes>
      <leafValues>
        6.9732069969177246e-01 -1.5877668559551239e-01</leafValues></_>
    <_>
      <internalNodes>
        0 -1 7176485 5.7757797185331583e-04</internalNodes>
      <leafValues>
        -2.0548291504383087e-01 5.7843250036239624e-01</leafValues></_>
    <_>
      <internalNodes>
        0 -1 3903252 5.1889512687921524e-02</internalNodes>
      <leafValues>
        1.4981880784034729e-01 -8.6229246854782104e-01</leafValues></_>
    <_>
      <internalNodes>
        0 -1 4523811 -2.0191579824313521e-04</internalNodes>
      <leafValues>
        7.4967688322067261e-01 -1.6573493182659149e-01</leafValues></_>
    <_>
      <internalNodes>
        0 -1 6135271 -1.9217157387174666e-04</internalNodes>
      <leafValues>
        6.9545942544937134e-01 -1.5550814568996429e-01</leafValues></_>
    <_>
      <internalNodes>
        0 -1 3270816 -1.9939720630645752e-02</internalNodes>
      <leafValues>
        -5.6819999217987061e-01 2.1452899277210236e-01</leafValues></_>
    <_>
      <internalNodes>
        0 -1 6993603 -2.9953740886412561e-04</internalNodes>
      <leafValues>
        6.2766003608703613e-01 -1.7366690933704376e-01</leafValues></_>
    <_>
      <internalNodes>
        0 -1 5765457 -4.6243869292084128e-05</internalNodes>
      <leafValues>
        -8.2799094915390015e-01 1.4787270128726959e-01</leafValues></_>
    <_>
      <internalNodes>
        0 -1 5044216 -4.0433533285977319e-06</internalNodes>
      <leafValues>
        -6.4280587434768677e-01 1.3255436718463898e-01</leafValues></_>
    <_>
      <internalNodes>
        0 -1 5529076 5.2253541070967913e-05</internalNodes>
      <leafValues>
        -2.9787996411323547e-01 3.4575811028480530e-01</leafValues></_>
    <_>
      <internalNodes>
        0 -1 6214493 9.2484219931066036e-04</internalNodes>
      <leafValues>
        -1.7341747879981995e-01 5.3887891769409180e-01</leafValues></_>
    <_>
      <internalNodes>
        0 -1 6121572 -9.9084537941962481e-04</internalNodes>
      <leafValues>
        7.1177721023559570e-01 -1.4613056182861328e-01</leafValues></_>
    <_>
      <internalNodes>
        0 -1 6603072 -4.4930174946784973e-02</internalNodes>
      <leafValues>
        -8.3006232976913452e-01 1.6226537525653839e-01</leafValues></_>
    <_>
      <internalNodes>
        0 -1 378480 -4.6308629680424929e-04</internalNodes>
      <leafValues>
        -4.8614162206649780e-01 1.8871974945068359e-01</leafValues></_>
    <_>
      <internalNodes>
        0 -1 5055463 2.1584257483482361e-03</internalNodes>
      <leafValues>
        -2.1938838064670563e-01 4.5975390076637268e-01</leafValues></_>
    <_>
      <internalNodes>
        0 -1 4306624 4.4823586940765381e-02</internalNodes>
      <leafValues>
        1.7437715828418732e-01 -5.7768797874450684e-01</leafValues></_></weakClassifiers></stage5>
</opencv_storage>
