<?xml version="1.0"?>
<opencv_storage>
<stage4>
  <maxWeakCount>14</maxWeakCount>
  <stageThreshold>-9.2104852199554443e-01</stageThreshold>
  <weakClassifiers>
    <_>
      <internalNodes>
        0 -1 5661992 5.4015975911170244e-04</internalNodes>
      <leafValues>
        -1.1990111321210861e-01 6.3451778888702393e-01</leafValues></_>
    <_>
      <internalNodes>
        0 -1 4149027 -1.8859173869714141e-03</internalNodes>
      <leafValues>
        7.7833694219589233e-01 -1.1591985076665878e-01</leafValues></_>
    <_>
      <internalNodes>
        0 -1 1352872 2.4640788979013450e-05</internalNodes>
      <leafValues>
        2.3245047032833099e-01 -5.1741927862167358e-01</leafValues></_>
    <_>
      <internalNodes>
        0 -1 6529818 2.7571334503591061e-03</internalNodes>
      <leafValues>
        1.8013800680637360e-01 -6.8006527423858643e-01</leafValues></_>
    <_>
      <internalNodes>
        0 -1 4607657 2.3744886275380850e-03</internalNodes>
      <leafValues>
        -1.9103866815567017e-01 6.1568194627761841e-01</leafValues></_>
    <_>
      <internalNodes>
        0 -1 5384683 4.0188389830291271e-03</internalNodes>
      <leafValues>
        -1.6543920338153839e-01 6.5250867605209351e-01</leafValues></_>
    <_>
      <internalNodes>
        0 -1 5366102 -2.8753656806657091e-05</internalNodes>
      <leafValues>
        -9.1183435916900635e-01 1.5359765291213989e-01</leafValues></_>
    <_>
      <internalNodes>
        0 -1 3887370 -1.7406886909157038e-03</internalNodes>
      <leafValues>
        6.6594660282135010e-01 -1.7906579375267029e-01</leafValues></_>
    <_>
      <internalNodes>
        0 -1 5234918 6.3465829007327557e-03</internalNodes>
      <leafValues>
        1.1258649826049805e-01 -8.9594739675521851e-01</leafValues></_>
    <_>
      <internalNodes>
        0 -1 2868447 1.3175286585465074e-03</internalNodes>
      <leafValues>
        -1.6399647295475006e-01 6.7970150709152222e-01</leafValues></_>
    <_>
      <internalNodes>
        0 -1 6617175 -9.3078997451812029e-05</internalNodes>
      <leafValues>
        -4.8648464679718018e-01 2.2124010324478149e-01</leafValues></_>
    <_>
      <internalNodes>
        0 -1 6569372 1.0480467462912202e-03</internalNodes>
      <leafValues>
        -1.9045408070087433e-01 5.6154274940490723e-01</leafValues></_>
    <_>
      <internalNodes>
        0 -1 154857 1.7215497791767120e-05</internalNodes>
      <leafValues>
        2.0025967061519623e-01 -5.1529198884963989e-01</leafValues></_>
    <_>
      <internalNodes>
        0 -1 6722682 3.6288653500378132e-03</internalNodes>
      <leafValues>
        -1.4563599228858948e-01 7.6928484439849854e-01</leafValues></_></weakClassifiers></stage4>
</opencv_storage>
