<?xml version="1.0"?>
<opencv_storage>
<stage6>
  <maxWeakCount>18</maxWeakCount>
  <stageThreshold>-9.7660648822784424e-01</stageThreshold>
  <weakClassifiers>
    <_>
      <internalNodes>
        0 -1 5360978 1.5598831168972538e-06</internalNodes>
      <leafValues>
        -2.5884544849395752e-01 5.1132076978683472e-01</leafValues></_>
    <_>
      <internalNodes>
        0 -1 4391517 -1.8792860209941864e-03</internalNodes>
      <leafValues>
        8.6652213335037231e-01 -1.2280516326427460e-01</leafValues></_>
    <_>
      <internalNodes>
        0 -1 6388229 1.8713384633883834e-04</internalNodes>
      <leafValues>
        -1.5676440298557281e-01 6.6629874706268311e-01</leafValues></_>
    <_>
      <internalNodes>
        0 -1 3910370 1.1836639605462551e-03</internalNodes>
      <leafValues>
        -1.4078834652900696e-01 8.6385530233383179e-01</leafValues></_>
    <_>
      <internalNodes>
        0 -1 6302104 -9.3120720703154802e-04</internalNodes>
      <leafValues>
        7.6114922761917114e-01 -1.4435337483882904e-01</leafValues></_>
    <_>
      <internalNodes>
        0 -1 3541641 -2.6748895645141602e-02</internalNodes>
      <leafValues>
        -7.2559666633605957e-01 1.7675267159938812e-01</leafValues></_>
    <_>
      <internalNodes>
        0 -1 6301883 2.5442877085879445e-04</internalNodes>
      <leafValues>
        -1.6907432675361633e-01 6.2408226728439331e-01</leafValues></_>
    <_>
      <internalNodes>
        0 -1 7057056 1.6673732898198068e-04</internalNodes>
      <leafValues>
        -1.2092947959899902e-01 8.8501024246215820e-01</leafValues></_>
    <_>
      <internalNodes>
        0 -1 6243969 -1.3735011452808976e-04</internalNodes>
      <leafValues>
        6.0589832067489624e-01 -1.3970528542995453e-01</leafValues></_>
    <_>
      <internalNodes>
        0 -1 6554365 -2.4577815565862693e-05</internalNodes>
      <leafValues>
        -4.4616487622261047e-01 2.3689918220043182e-01</leafValues></_>
    <_>
      <internalNodes>
        0 -1 7058436 1.4215583214536309e-03</internalNodes>
      <leafValues>
        -1.6835121810436249e-01 6.2864005565643311e-01</leafValues></_>
    <_>
      <internalNodes>
        0 -1 6001649 1.2495510280132294e-02</internalNodes>
      <leafValues>
        2.1719339489936829e-01 -6.3125777244567871e-01</leafValues></_>
    <_>
      <internalNodes>
        0 -1 6932121 -8.5438624955713749e-04</internalNodes>
      <leafValues>
        4.9455785751342773e-01 -2.2231341898441315e-01</leafValues></_>
    <_>
      <internalNodes>
        0 -1 5467635 -4.7792277655389626e-06</internalNodes>
      <leafValues>
        -5.4269701242446899e-01 1.8832844495773315e-01</leafValues></_>
    <_>
      <internalNodes>
        0 -1 4148997 1.1060354299843311e-03</internalNodes>
      <leafValues>
        -1.2131349742412567e-01 8.1606960296630859e-01</leafValues></_>
    <_>
      <internalNodes>
        0 -1 5860980 3.0163544579409063e-04</internalNodes>
      <leafValues>
        -1.9214208424091339e-01 5.2913630008697510e-01</leafValues></_>
    <_>
      <internalNodes>
        0 -1 3381014 1.0557651519775391e-01</internalNodes>
      <leafValues>
        1.5155249834060669e-01 -7.0528459548950195e-01</leafValues></_>
    <_>
      <internalNodes>
        0 -1 5672450 -6.2829858507029712e-05</internalNodes>
      <leafValues>
        -7.4295777082443237e-01 1.4045494794845581e-01</leafValues></_></weakClassifiers></stage6>
</opencv_storage>
