<?xml version="1.0"?>
<opencv_storage>
<stage16>
  <maxWeakCount>16</maxWeakCount>
  <stageThreshold>-1.0369247198104858e+00</stageThreshold>
  <weakClassifiers>
    <_>
      <internalNodes>
        0 -1 87828 1.9054104996030219e-05</internalNodes>
      <leafValues>
        4.8651000857353210e-01 -3.4821429848670959e-01</leafValues></_>
    <_>
      <internalNodes>
        0 -1 87828 -1.0442564416734967e-05</internalNodes>
      <leafValues>
        -4.7823384404182434e-01 3.0010560154914856e-01</leafValues></_>
    <_>
      <internalNodes>
        0 -1 5667477 -1.9691431589308195e-05</internalNodes>
      <leafValues>
        -7.2459363937377930e-01 1.5199489891529083e-01</leafValues></_>
    <_>
      <internalNodes>
        0 -1 3573593 -3.3751875162124634e-03</internalNodes>
      <leafValues>
        5.5502629280090332e-01 -2.0201210677623749e-01</leafValues></_>
    <_>
      <internalNodes>
        0 -1 3797036 1.9431076943874359e-02</internalNodes>
      <leafValues>
        -2.6385128498077393e-01 4.5513588190078735e-01</leafValues></_>
    <_>
      <internalNodes>
        0 -1 291758 4.8990947107085958e-05</internalNodes>
      <leafValues>
        3.2045182585716248e-01 -3.6862519383430481e-01</leafValues></_>
    <_>
      <internalNodes>
        0 -1 973832 -1.2781789898872375e-01</internalNodes>
      <leafValues>
        7.0976507663726807e-01 -1.6040745377540588e-01</leafValues></_>
    <_>
      <internalNodes>
        0 -1 808274 5.8594621717929840e-02</internalNodes>
      <leafValues>
        -2.1595950424671173e-01 5.9553086757659912e-01</leafValues></_>
    <_>
      <internalNodes>
        0 -1 7668309 5.7812518207356334e-05</internalNodes>
      <leafValues>
        2.5635161995887756e-01 -4.2886012792587280e-01</leafValues></_>
    <_>
      <internalNodes>
        0 -1 5571145 -2.4704925715923309e-02</internalNodes>
      <leafValues>
        5.0352412462234497e-01 -2.1135245263576508e-01</leafValues></_>
    <_>
      <internalNodes>
        0 -1 6766192 1.4753788127563894e-04</internalNodes>
      <leafValues>
        1.9893802702426910e-01 -5.0829887390136719e-01</leafValues></_>
    <_>
      <internalNodes>
        0 -1 7614021 8.5707011749036610e-05</internalNodes>
      <leafValues>
        2.4026307463645935e-01 -4.3638861179351807e-01</leafValues></_>
    <_>
      <internalNodes>
        0 -1 6709335 6.2372407410293818e-04</internalNodes>
      <leafValues>
        1.7552186548709869e-01 -5.6768363714218140e-01</leafValues></_>
    <_>
      <internalNodes>
        0 -1 3767690 6.1151258647441864e-02</internalNodes>
      <leafValues>
        1.0938043892383575e-01 -7.7705621719360352e-01</leafValues></_>
    <_>
      <internalNodes>
        0 -1 4373961 -1.0349737480282784e-02</internalNodes>
      <leafValues>
        4.4807648658752441e-01 -2.5377643108367920e-01</leafValues></_>
    <_>
      <internalNodes>
        0 -1 7299893 1.0837145964615047e-04</internalNodes>
      <leafValues>
        2.6195541024208069e-01 -4.0580970048904419e-01</leafValues></_></weakClassifiers></stage16>
</opencv_storage>
